382 500
el -0.012319638 -1.1071533 0.54230493 -2.1085174 1.2686611 -2.6362195 0.72002655 0.7893488 -1.6425594 0.37398934 -1.820304 0.5756063 -0.8800344 -2.2221713 -0.08955925 2.027874 1.0843658 2.7056892 1.4652689 -1.5569248 -0.7337483 -0.2787819 -0.5449374 0.57600874 -2.52824 -0.86424625 -0.51905626 0.6603337 -0.21566272 -0.24854164 1.3033683 -0.5823992 -0.72902894 -0.7475996 -1.0524926 0.2736272 0.33795127 1.3356577 0.0045034923 -0.5407894 -0.5502569 0.5180106 1.5942795 0.7296617 -0.74774843 -0.029642737 1.0875503 -1.3209072 0.57996184 0.18768215 -1.8765337 0.32511714 0.72244704 0.12979093 -0.8567134 0.71051437 0.22779208 -0.6178719 -0.12514593 -2.738555 -1.4586202 0.7045853 0.36088258 2.0405407 -0.10390907 1.6156611 -1.6429808 -0.7223251 -1.5272363 -0.36028427 -1.58579 -0.6092539 -0.21210928 0.17678954 0.08871989 -0.83578277 0.16931365 1.2660357 -1.2425473 0.13024193 0.3940048 0.419556 0.33631274 0.9248146 -0.28087085 -0.45395905 0.8751447 -0.31523234 -2.1305175 -0.9911342 -0.28128624 -0.58461297 1.1337323 0.10085516 -1.5921438 -0.30548808 -0.6736083 1.469861 -0.11364884 0.47765195 -0.8510994 -1.1616076 -0.025989832 -1.6152593 -0.47900113 -1.2600675 1.4465156 -0.46895272 -0.35276437 0.18536907 -0.30580437 0.42044523 -0.022683589 1.0513387 -0.68385565 0.13276897 -0.6652265 0.4489817 -1.1814803 -0.7591996 1.1327009 -0.7381511 0.028700171 1.8846654 0.4541942 -0.17263715 1.1262652 -1.5134155 0.6233697 -0.99215466 0.49887058 0.697685 -0.8098859 -0.3096525 0.15937574 0.25265935 -0.2569737 0.17310408 -1.17242 -0.49546924 -0.4823496 -1.1362989 -0.08255743 0.62592787 -0.61197025 -0.28137624 -0.25838172 0.118090734 -0.32627094 -0.24063891 -0.35230577 -0.6260085 0.10088155 -0.3484287 1.2465125 -0.17400636 0.16199017 -0.7716942 -0.3735491 -1.2321583 0.6663693 -1.1507529 0.32857186 1.3506525 0.13509585 -0.83633626 0.15320481 -0.56459206 0.91373813 0.38945037 0.028054992 -0.8319423 -0.21078825 -0.97706234 -1.4290301 -0.41917995 -0.5487982 -0.967156 1.2390726 -0.46324393 -0.11325029 0.8525629 0.08027718 1.3033255 -1.0412017 -0.4125855 -0.061458685 0.011457074 -0.13574524 -0.41324326 0.584472 -1.8434521 -0.86984456 0.73530525 -1.1188658 -1.9364313 0.5148824 -0.29402784 -0.032812383 -0.7925142 0.70923364 0.27595046 1.5684453 -0.04930287 0.13297735 1.1002452 0.17742242 1.0706122 0.3810713 1.1215231 0.64295906 -1.0621282 -0.16920589 -1.5536325 0.14907397 0.7308433 0.9371632 -0.44076055 -0.06895329 -0.27633604 -1.4183198 0.16072062 0.112310156 0.19830976 -0.2772251 1.1671771 1.3497343 0.89126843 -0.30239293 -0.56412184 -0.97472113 -0.1489552 0.539018 0.17365792 -0.014399714 0.6142315 -0.15344046 -0.96618915 1.089373 1.2917522 0.9817989 -0.45955065 -1.092919 1.0545603 0.5386563 -0.5850036 0.2929374 -0.0062307916 0.6243333 0.17006938 -0.52943486 -1.7583609 0.4358568 -0.024661828 -0.26445705 0.48000544 0.3041744 0.051426366 1.2658038 0.35739937 -1.0135468 -0.34126398 0.97699374 -0.1338378 0.67301434 0.9567043 -1.6052928 -0.39044413 -0.026873173 -0.57489866 0.02393193 -0.1542102 -0.053976867 -0.30010113 -0.60117614 -0.030839633 -0.6430466 0.033341095 -0.5371476 -0.9446982 1.0613459 -0.41848415 -1.6069992 1.1137319 0.40532753 0.5646772 -0.6415911 0.35806414 1.0199333 1.0578228 0.6260943 -0.2733661 -0.3352347 0.07892138 0.86852133 0.14781237 0.22799672 -0.53446454 -0.4977821 0.12155959 0.7206469 -0.59939736 -0.10711957 -0.30480707 -0.7532952 1.6453927 0.8823329 0.6033822 -1.2206361 -0.864562 -0.26356304 -0.52183574 -0.37958795 -0.41765895 -1.0171819 0.10516896 1.0777946 0.39548475 0.6759593 -0.1714853 -0.98228174 -1.4536225 0.35347885 -0.4861177 -0.16922614 1.4170818 -0.36691767 -0.785157 1.421876 -1.2631116 1.1154841 0.8561683 0.46272212 -1.2497555 -0.19682884 1.036852 -0.52907956 0.510967 -1.0353655 -0.37045804 0.008220986 0.6415581 1.0607507 -0.4285049 -0.74981624 0.7447166 1.8066108 -0.36464927 -1.6274345 0.08844926 0.76816756 0.065684974 -0.25238517 0.94421273 -0.57771516 -0.74934864 0.91454697 -1.1539528 1.0739241 -0.28828928 -0.06553078 0.6306222 0.19612755 -1.1272119 -0.33447206 0.7561327 -0.42171302 0.1626746 -0.01982703 -0.29240507 -0.66153723 -0.69526345 0.4525284 -0.8207847 0.15703131 0.79928344 0.0068546445 0.6306343 -1.4819328 -0.9745896 0.07272921 -0.17325649 -0.8651416 0.12398798 -0.051612996 0.38615963 -0.59151876 0.9937598 -0.5631432 0.68406755 -0.49940896 -0.62264574 0.54514265 0.27763566 0.28416502 -0.030565133 0.25716755 0.381659 0.060898777 1.7973989 -0.18306185 0.28680933 0.35693407 -1.6108689 0.2580758 -0.14296952 -1.5047984 -1.1744894 0.11771296 -0.6721124 -1.0849085 -0.01226798 1.1292301 -1.1814886 -0.012713119 0.34835553 -1.2200913 1.0174197 2.3711221 -0.60131097 -0.52792233 -1.525773 0.8257182 0.3900646 -2.045189 1.4197488 0.1595499 -0.26042324 -1.0211414 -0.9436224 -0.5528549 0.18622303 1.0980474 0.8731564 -0.7755926 0.90423 -0.2764816 -1.3411932 1.4336449 0.4022121 0.33810186 -0.51172584 1.2678536 -0.03906896 0.5302764 -1.5368377 0.4141136 -1.6704001 0.5240057 1.8154583 -0.33466622 0.2538292 -1.2693284 0.08716876 0.009404635 1.8747354 1.9019511 1.5416149 1.9451743 0.9733321 -1.366221 -0.39192584 1.0026951 -1.3103808 0.10757439 1.7056488 -1.361356 -0.0130368965 0.0069229268 0.9892871 0.8437331 0.38867474 -0.3504375 -3.2622516 0.6745963 -1.2039863 -0.9871409 1.7375041 0.16848537 -0.93787444 -0.3297704 -0.7023914 1.0635318 1.4088798 0.4459989 1.1280148 0.0717104 1.1216428 -1.6066263 1.0210738 -0.8759972 0.2513563 -0.9923288 -0.9939032 1.7840914 1.2361709 -0.8570073 -0.06586915 1.1987195 -0.67190325
este 2.2852178 0.15740535 -0.21246758 -0.912895 2.2990801 0.5596323 0.057061788 -0.21996097 1.4342307 0.5907249 0.7527005 -0.070280775 0.16381636 1.7587731 0.29611126 -0.33727062 0.8496977 -0.1357337 2.6648796 -0.91819316 1.1981753 0.8992388 -2.2193441 -1.1086854 -1.3825357 0.12666702 0.18342973 -1.7012237 -1.5669715 1.2889766 1.3967125 0.014850071 -0.27428526 -0.17861946 0.44383013 -1.072082 -0.18227634 1.04046 0.39204404 0.47765377 0.009684292 0.2347621 -0.97886574 -0.058264382 -1.916165 1.4079834 0.6756309 -2.0765758 -0.24131817 1.1062059 -2.1648629 -1.2641506 -0.21719357 -0.6585501 0.6385325 0.3198676 0.9799751 1.5385213 -1.1934097 0.15525894 -1.4942893 -0.72496575 0.40107435 0.19781458 0.29709893 -0.7505595 0.7151332 1.4151238 -3.0294912 -0.39742878 0.061689246 0.2516973 -1.9587176 -0.7416567 0.10063949 -0.0154301785 -1.3073684 0.26446593 -1.8444933 1.2575088 -1.3295763 0.010103528 -0.22671236 -0.6977574 0.028935596 -0.5517254 0.34147543 0.55295134 -0.710708 -0.49510136 -0.18958166 -0.97596306 1.3207836 0.14138605 0.17820507 -1.1026701 0.4363534 0.2689634 0.3491228 1.2519245 0.018038334 -0.4896255 1.5352447 -0.33703342 -0.023960104 1.2232971 2.015106 -1.4493407 -1.6339209 0.7732836 -1.9026588 -0.20957415 -1.4298238 -1.0249627 -0.37630507 -0.8005049 -0.2536368 -0.1893359 -0.042603645 -1.1485177 0.57030344 -0.103474885 -0.80998594 -1.4010838 -0.48427337 -1.4235847 -0.06430235 0.34405 -0.23219132 -1.2176515 0.36325213 -0.64724547 0.6580742 1.4534032 -1.2725891 0.41462678 -2.1960816 -0.5308862 -1.7275037 1.7437867 0.8153095 -0.38713863 -0.45394263 0.5033901 0.32324985 -0.23122537 -0.59730244 -1.7672931 1.1168344 -0.037927844 -0.34775996 -1.0618383 -0.7763474 -0.8878267 0.9059828 0.403742 -0.4252313 0.5319206 -0.7159851 0.103225544 -0.04418287 -0.73924273 0.17468296 1.1562672 0.11319714 0.49117893 1.2745242 -1.3170409 0.8447786 0.4029802 0.054863643 -0.51545274 0.48415253 0.014228647 -1.2269249 0.28413197 1.5860398 -0.9660677 1.5745987 0.033404347 0.5691213 0.22058015 -0.17350478 -0.063271224 -0.6972996 -0.38511443 -0.4321915 -0.43001708 -1.1768339 -0.6069784 0.44178584 -1.3137074 0.36928377 -0.45781708 -0.50829864 -0.20502672 -0.5656142 0.024236977 -0.89626604 0.85987043 -0.2167335 -0.02605872 -0.5371816 -0.6761061 -0.9808998 -1.3224952 0.6239314 1.1446733 0.5352337 -0.04496127 0.24613658 -0.39461142 0.692044 0.008665211 1.2265443 -0.050083943 0.13171464 0.43025854 -1.2724438 -0.9909657 -0.21078965 1.031835 0.62811863 0.9201627 -1.7111504 0.23997201 0.40786415 0.8263783 -0.5465333 -0.57557243 0.29856718 -0.31003562 -1.1924058 -0.46449867 1.1498127 -1.2661889 0.47525182 -0.1123486 0.2786797 1.032489 0.5760652 -0.28904986 -0.62403643 0.23802017 -0.4227709 1.3670311 0.89090365 -0.5494513 0.007968843 0.9834897 -0.30652437 -1.4847139 -0.32153672 -0.43406627 -1.6478219 1.7588773 1.3477874 1.5063026 -1.2126518 -0.21492228 0.6819656 -0.27343765 0.9375692 -0.5007997 -0.8172514 0.6010118 -1.581582 -2.2287347 -0.82022196 0.69554883 1.0001253 0.7592064 -2.6183534 -1.5012201 1.230749 -0.09793094 -2.2366805 -2.6109679 -0.8376566 -0.13555726 -0.26617247 -0.17022844 -0.17726666 0.2839787 0.43146905 1.433705 -0.062192086 0.5527314 -0.5988659 0.22409849 -0.28318176 0.41140404 -0.80647445 -0.5199519 0.1044187 0.4335772 2.3954158 0.81572515 0.6139733 -1.5972407 1.57288 1.087307 -1.2854593 -0.12875809 0.13672419 1.2027321 -0.7841372 0.5288635 -0.4143877 -2.430074 0.55506265 -0.8639661 0.6610543 0.4923789 0.030532671 0.47271392 0.26232883 -0.23351574 -0.40146422 0.47131944 -0.6833832 -0.42854944 0.6689125 0.036508527 1.2580382 0.13724235 -1.0288596 -0.6008751 0.48385984 -0.2618345 1.0823876 0.66159314 1.4085034 -0.28219035 0.5076621 -0.1860983 -0.05158401 1.7833699 -0.39426854 -0.70696217 -0.82584363 0.9086283 0.51471424 -0.63020945 -0.55602914 0.76070976 -0.30061558 -0.31867346 -1.112979 1.2644725 0.45639813 -1.7292929 0.7130569 -1.9003987 -0.10974908 -0.39976528 -0.6632118 -0.8497223 0.13770856 0.5486317 -0.48489535 0.9476409 0.6279476 -0.72259676 0.04249608 0.60135114 -1.2982072 0.33518532 -0.21319257 0.82486546 -1.1451273 0.30951628 0.4575204 -0.7489828 0.6659147 0.14049128 0.26384205 -0.3338597 -2.190842 0.48832706 1.0441285 0.0178412 -0.7614464 -0.7134623 0.99276626 -1.6564734 -0.10118322 2.8208702 0.36060742 0.16381298 -0.36009806 0.2223144 -0.24022368 0.4935402 0.29163602 -0.2208628 0.7166634 -0.60911345 1.2312196 1.5518883 1.6045754 0.064172044 0.93443775 0.8829929 0.4103444 -0.47002238 0.015135955 0.65280855 0.07291718 -0.67455 -0.33813363 -0.18895307 0.9347305 0.54595536 -1.5619185 -0.44899398 -0.6986802 -1.6940494 1.8577307 -0.39551458 -1.6179756 0.4857758 0.579932 1.5821965 -1.9012341 0.18400471 -0.39324048 -0.71047664 0.94189435 -1.2005122 0.9165265 0.15745345 1.4051701 -0.13655128 -1.5970057 0.8295679 0.27597 -1.4009069 0.3997865 -0.2649251 -1.439152 -2.1188543 0.8135552 -0.5972665 -0.34720764 -0.6091747 -0.33899215 -1.0187927 1.1355428 -0.47955197 0.5788182 1.5656453 -0.13988099 -1.1857535 -1.0175395 -1.2627608 2.205819 0.77060044 1.7772517 0.62328094 -1.048537 -2.1487088 0.35976157 0.8916102 1.2353894 0.16774212 -0.6111967 -0.8786001 -1.9999326 -0.9961456 1.2525839 0.12407097 -1.1030215 -0.8271381 0.15354526 1.3855586 0.2229388 1.9350283 0.66482663 -0.86805886 -0.48268968 0.35444948 0.7545727 -0.7892474 -0.43605348 -0.6070839 -0.51917857 0.030320069 1.7585813 -1.5545076 -1.4064313 1.0561123 2.0699358 2.1990907 -1.5098306 0.105390206 1.4257005 -0.11376066 -0.50649977 -0.2399079
de -1.4685936 -0.5926432 0.6795994 0.061365325 -1.5143447 -0.20745744 -1.3594272 -0.23424076 -1.9302484 -0.6970536 -0.9561724 -1.7174032 -1.2345568 1.4598185 0.03216183 -0.3438319 0.55121505 0.83973163 -2.5506625 0.20300333 -1.0789018 -1.4421024 0.44332296 0.18974209 -1.4018439 0.28569043 0.6532958 0.110042036 1.5017709 -0.75679654 -0.21569027 0.26195133 -0.69631714 1.0008813 -1.4298834 -0.4714156 0.75076985 0.44107497 -0.99522126 0.7868 -1.587489 -0.83856255 0.39330626 -1.0992242 0.3747372 -1.6915545 -0.1595375 -1.4243735 -1.2279177 -0.5799877 -0.95893854 -0.6897612 0.68111414 -0.7304935 0.7375388 0.8568871 0.54664814 -0.34944865 0.400747 -0.21368757 0.24085718 0.31138077 -0.18645677 -0.7867284 -0.31530112 1.3506446 -0.8144623 1.2890035 -2.0161283 0.49146506 0.027939066 0.003711713 -0.8727618 0.4203231 -0.2006235 0.14598034 2.2070498 0.47075945 -0.3625653 -1.3215963 2.1424463 -0.7540672 0.35048753 0.41216844 0.4628643 1.4520904 -1.7011751 0.058275305 -0.07790965 -0.058168955 1.3682902 -0.5143571 0.33584476 0.055091556 0.0053090695 -0.4829466 0.7740839 -0.9034039 1.101822 0.77020264 -1.8786857 -1.0261204 -0.50780714 -1.525213 0.1547576 -0.746242 0.96220446 0.251456 0.06310043 0.62981266 -0.39322463 0.63483584 -1.2670797 -1.1928663 1.2646397 0.5728384 -1.462374 0.75798166 0.747176 0.1732496 0.45253834 0.032755133 -0.41978714 1.1866776 -0.19667983 -0.3616938 0.52218765 0.23000947 0.38606152 -0.16131137 1.0479019 0.06755838 -0.5374264 0.5421734 -0.13392061 1.2226142 -0.3366927 -0.6380416 -0.097502716 -0.3975128 -0.37886304 -0.64138556 -0.17215838 0.86898714 -0.7959098 -0.5415372 -0.42915842 0.9687398 1.4914091 -0.9713501 -1.2738305 0.2846637 1.2383882 -0.6473244 0.6743578 -0.63588274 -0.54892266 -1.7718077 0.9527902 -0.5251624 -0.21567595 -1.3990265 0.874986 1.232096 -1.3815249 -0.02027404 -1.3683852 0.114962064 -0.4669946 0.21670198 -0.6719861 -0.7445195 -1.1165792 -1.6034878 -0.38185358 -1.880398 0.46395233 -0.84018046 -0.5487141 0.75713676 0.8572659 -0.44834894 -1.0636348 0.93080163 -0.34676248 -0.93354654 0.2234344 -0.07609774 -0.4813902 0.151236 -1.129302 1.0792538 0.58983463 -0.28376263 -1.2133538 0.38023633 0.42359695 -0.34126168 0.5300971 -0.72084135 -0.033866286 0.40727758 0.6683323 0.9144026 0.3903098 0.9500367 0.16649102 -0.90761507 1.0660578 -1.0551347 0.4701699 -0.8080387 0.18552853 -0.19576807 0.23578489 0.14571872 -0.401067 -1.5193574 -0.5903993 -0.0051236404 -0.049156867 0.18396227 -1.2161564 -0.81456697 -0.37217107 0.24653263 -0.023664022 -0.20240328 1.1128583 0.12650202 0.2479997 -0.16426128 0.69095856 0.14649704 -0.238761 -0.50667393 0.52669084 0.0035450435 -0.37087995 1.1888212 1.595001 1.0509807 -0.17960867 0.02748177 0.5611723 0.18522084 -0.580753 -0.47513446 0.2877323 -0.42534667 -0.99627334 -0.8328072 0.40797734 -0.28232554 -0.31924337 0.0054564634 -1.2561746 -1.6306589 1.1560237 -0.97411805 -0.3667915 1.7541946 -0.29898268 -1.1320935 -0.25977683 0.11954746 -0.670222 0.8781564 -1.0105768 -0.52233285 -0.52373254 0.18759136 0.6504045 1.1941911 0.3514064 0.058729287 -0.55063254 -0.87230194 -1.3593808 -0.8455038 0.05422331 0.6944654 -1.108994 0.5030128 0.32645896 1.2593236 1.0471963 -0.38317236 -0.35402042 0.30244195 1.4099277 -0.7032498 0.055123165 0.6585825 0.29032764 1.1872342 -0.1069767 0.81106323 -0.3456611 1.0532258 0.65780556 0.8577177 0.66419417 0.11852197 -0.6893778 0.8050008 0.9085613 0.20902812 -0.40820378 0.6833205 -0.17232116 -0.2024642 -0.5269094 -0.37238252 -0.13563134 0.29133785 -0.35756004 0.23341991 1.6587579 -0.87204283 -0.6448168 0.0016587417 0.69199246 -0.14453965 0.23849577 0.5551888 0.5025253 -1.8573643 0.08223636 0.045540884 -0.2695212 -0.2390962 -1.2334687 -0.028443193 1.2390668 -0.23141769 -1.9941776 -1.0165775 1.2740787 0.23283136 0.92386043 -0.7031471 1.8845853 0.17060702 -1.3830134 0.07564669 -0.65400517 -1.0164938 0.7296516 0.3702991 -0.6160779 0.5394213 -0.30875447 0.9087467 1.4572809 -0.929722 1.0181732 0.18565878 0.21219356 0.02858859 -0.009460202 0.13332595 0.3802711 0.82382864 -0.5761559 -2.1722445 -0.6481777 1.1118991 2.2415311 0.40614417 1.1024579 -0.57623136 1.0359432 -0.38085067 0.7347727 1.1225111 -0.24695781 -1.3828535 1.0117756 -1.1173964 -0.5618404 -0.41439524 2.2063024 -0.3916672 -0.4543729 -1.6427983 -0.6152627 -0.45905745 -0.19362625 -0.07956481 -0.32845873 0.09543103 -0.9227403 -0.6434265 -0.5421327 0.17677991 1.0958004 -0.2730423 1.93 0.07980987 0.65943426 0.7290295 0.7961876 -1.0931826 0.7415841 0.75433815 -2.1569588 1.0231714 0.781299 1.009162 -1.0364009 1.0164837 -0.50441444 0.92261034 -0.2555854 1.3609265 -0.8006102 1.1540122 -0.5717138 0.015995989 -0.15613163 0.3989613 -2.0578492 -0.48611468 0.24079478 -1.0591956 -0.17139769 -1.4100482 1.1582028 -1.0726548 -0.6380055 0.7119252 0.926564 0.976706 1.0521511 0.7095024 -1.2215244 -0.15016519 0.21462765 0.6748231 -1.2976186 -0.4572383 0.46566835 1.9155756 -1.0805575 -0.52460295 -1.03048 -2.8459554 -0.30318782 -0.11318184 0.11626698 0.33218008 -0.19220167 -0.73842704 1.4799589 0.48099762 0.6496074 2.374199 0.5162047 0.31122294 0.29461837 0.12972167 -0.42955762 -1.0608222 -0.7513506 0.33920145 -0.5113972 -1.7512474 -0.44729474 -1.4846901 -0.25277984 -0.9302722 0.7093159 -0.4659017 -0.00557959 0.6313168 0.55326796 0.5343992 -0.6251711 -0.30524635 0.3024279 -0.056005206 -0.05328113 1.0364815 -0.73718876 -0.29831702 0.97634685 0.62123215 -1.9952112 1.7374905 -0.34643275 -1.1236577 -0.36233705 -0.6936014 1.1830275 -1.368966 1.68356 0.29653686 1.2914976 -1.0506201
en -0.19623521 -1.3942434 -1.3598231 -2.5721922 0.27011666 0.6058832 0.7663924 -0.6999819 -0.20922899 0.56492543 1.5311903 0.72741205 0.97801304 1.0837528 0.5997673 -0.7324585 -0.16810317 -0.7881111 -1.584815 -1.7863288 0.18605824 -0.299967 -1.9410983 -1.1666801 -0.04918706 1.5263773 0.518911 -0.0003094352 0.9023948 -0.5191099 -0.4865188 1.1428868 -0.23825866 0.9818099 -2.5370717 -0.9373662 -0.09629288 -1.0915477 0.09536879 -0.13535103 0.17018524 -0.046844684 1.5434909 -0.6172367 0.5335802 -0.7788879 1.2971147 -0.4359348 -1.4835153 -0.99959606 0.032073416 -0.5018063 0.7109802 0.64008945 0.36242437 -0.44741786 -0.65768677 -0.9146326 -0.06311252 -0.08038956 -0.021696348 -2.0151536 -0.36390302 -0.6175477 -0.7091083 1.1522927 0.7780472 -0.4402581 0.7060219 0.29326138 -0.54083174 -0.031882755 -0.94526964 2.139045 -0.25574598 0.1570043 1.164528 0.064946905 -0.651347 0.241566 0.6128723 -0.623595 -0.053581644 -0.22639911 1.4912082 0.7959741 -1.0751073 1.1595124 -0.50621486 -0.7477155 0.33576667 0.8663566 -0.6422959 0.23275054 1.3449818 0.9507151 1.1828485 -0.971854 -0.113694265 0.5331627 -1.5507436 0.42737928 -1.0287151 -1.085553 -0.7742793 0.4453346 -0.21529128 0.6883373 0.9123685 -0.03933265 0.7702019 -0.25764623 -0.28770098 0.2726696 0.28518337 0.8847594 -0.8116293 2.24352 0.5328021 0.19127716 0.55280006 -1.5153615 -0.37890482 1.9852219 -0.17244984 0.17601709 0.5222805 -1.1346785 0.32514653 0.41273686 1.0260327 0.49074444 -1.9539518 -0.19690488 -0.3226345 0.3299493 -0.54551506 -0.08915116 -0.76490265 -0.35930547 0.7880511 -0.9195401 0.8287636 -0.39448655 0.059588242 0.610821 0.17621215 0.8483744 -0.49187875 -0.40590167 -0.94394606 -0.38785425 0.79157573 0.5687128 -1.6396781 0.50507987 0.4232313 -0.8789964 -0.61545855 0.32774973 0.73307383 -0.10426975 0.7075537 -0.1384229 -0.52714455 1.1047258 0.011539658 -0.8270606 -1.0140778 0.2732201 -0.31959885 -0.5688314 -0.5406966 0.03708895 0.6129139 -1.5735706 0.020956902 -0.4446379 0.33223945 -0.44588977 -0.4721597 -0.89527863 0.31207153 1.3559893 -1.2418599 -0.078352846 -0.40638942 -0.29791448 1.4100176 0.09338575 0.031282686 0.2982864 0.8784767 0.5222538 0.6912241 -1.1369857 -0.1832099 0.7032393 0.6233537 -0.13600187 0.11473049 0.39225954 0.9765465 0.6035123 0.21567455 0.97020245 0.4412182 -0.6370302 1.4032239 0.8147717 1.4804963 -0.601998 -0.006422829 -0.17100675 0.81164503 0.50440615 0.29359925 -0.42527652 -0.5760934 0.5353113 0.2378467 -0.81341475 -0.50993514 -1.0661974 -0.5619471 0.12221584 1.2157545 -0.35155526 0.18056828 0.45467106 0.47475436 -0.24810836 0.6932467 0.69482493 0.05590497 0.6534621 -0.37439665 -0.03759885 -0.02877457 0.45789003 1.8090054 0.19194584 0.7786848 -0.7366896 1.3141383 -0.8353831 0.2812015 -0.93858486 -0.3193915 1.2553028 0.08394813 -0.40141508 -1.3496459 1.0131631 1.2471592 -0.805461 -1.0263284 -0.8401553 0.32665807 -0.24827632 0.94217116 0.09686797 1.26062 -0.070504665 0.050487634 -0.15629925 1.4754577 0.8450865 0.60960555 0.581155 1.0930485 -1.1318799 1.7663208 0.73820436 -0.81068 0.2204707 0.08111165 -0.58591944 0.009689965 -1.2083564 0.3694104 -0.021184474 0.4078204 0.7505457 1.6942836 -0.45680735 -1.1241065 -0.08394753 1.5548788 0.35009173 0.48873758 0.16775203 0.32289788 0.80776733 -0.58429265 0.41291952 -0.49113214 0.026967531 0.41324213 -0.7138766 -0.29571086 0.025639912 0.92483366 -0.28250417 -0.60702825 -0.46355316 0.24266481 -0.27319846 0.5398183 1.3294072 -1.4232376 -1.0550642 0.20248252 -0.6953809 -1.0685893 1.0522355 0.6522617 -0.69068354 0.53837323 -1.2096691 0.76632285 -0.102634855 -0.3218543 -0.046902284 -0.7690116 -0.14976366 0.102469996 0.13287579 -0.010951533 -1.9378648 -1.2671176 0.35161602 0.44708297 0.418457 0.41336247 -0.87511575 -0.6047217 -1.195997 1.9439702 0.07242121 0.93733704 -0.14848284 0.3424002 -0.46054482 -0.7689985 0.47223634 0.5961332 -0.5546953 -0.285297 -1.3162283 -1.15303 1.966199 -1.8073215 0.87664294 0.0770117 0.5187787 0.0095131295 -0.031799976 -0.11241819 -0.3864127 -0.27845052 -0.072748944 0.5111426 0.7158268 -1.5275862 -0.80720156 0.4297111 0.9166728 0.11928089 -0.7534238 0.48296198 -0.7980397 -0.7698601 -0.17089097 -0.15730296 -0.7252481 -0.15591556 0.14451757 -0.09463416 -0.9245271 1.0722862 -0.011326416 1.8564392 1.0252448 -0.04168182 -1.1820898 0.004920999 -1.1846373 -0.11534189 -0.5634328 0.8741839 -0.40646183 0.026264234 0.25141698 -0.8980023 1.6085323 0.33157468 -0.9187232 0.3826333 0.48873252 0.09558696 1.1256932 0.3774934 -1.4363704 0.97470605 0.40286115 0.9601257 1.2614576 0.7277319 -0.4352802 -0.13059773 1.0934862 0.3589362 -1.3129361 0.5244709 0.55715406 0.8701943 1.4346322 0.6363068 -0.5550214 0.23297498 -0.60472095 -1.8317847 0.60217065 0.25848326 -0.3766767 -0.23684977 -2.5371635 1.1269875 -0.34583154 -1.8033282 1.5798137 -0.50985736 -0.4940069 0.18301493 0.9115538 -1.5321256 0.40882167 0.59176767 0.68272746 0.3273995 0.3229674 -0.17023903 0.6989933 -0.8786626 1.0523462 -0.67749953 -0.13969171 0.74932325 0.48707008 -0.018139582 -1.1396532 0.6457214 -2.0833673 0.88164496 -0.12635706 0.5982292 -2.702294 -1.1974975 -0.9432161 0.8128245 1.3495643 -0.833674 0.33086425 1.0902312 -0.041616447 -0.86572045 0.69424146 0.012360239 0.99728787 -1.5096977 -1.487394 -0.765715 -0.19873224 0.65347344 1.2168795 -0.4404271 0.51450896 -1.0474834 -0.4463724 -1.3272401 -0.383503 1.9667058 1.8075924 -0.87646604 -3.5563214 1.4501164 -0.48032826 -0.76604 0.07822421 1.0157613 0.035224687 0.18719167 0.40534374 0.7129174 2.301698 1.4441875 0.5274145 0.25629395 -0.16869096
tema -0.74812645 -0.30617368 0.761974 0.846896 -0.8093274 -0.7256574 -1.5518051 0.22563331 0.19379668 -1.3996319 -0.48072997 -1.4138719 -0.3275219 1.1171138 0.41351995 -0.45282546 1.6296487 0.5115426 1.276696 0.42375967 -0.15542588 -0.81820667 -1.7460669 0.19402613 0.24199517 0.60627246 -0.80990726 -0.53653634 0.23040298 0.10376208 -0.444355 -1.2622402 0.7577328 0.9339138 0.3223884 1.3794528 -0.5558622 0.6875044 -1.2192552 0.4668903 -1.3917924 -0.79931086 -0.6886191 -0.82759184 0.8554057 1.429943 -0.14638056 0.21385838 -1.206707 0.68955785 0.099260375 -0.14293967 -0.6973783 -0.62823564 0.4160143 1.147837 -0.041566122 0.79993004 -1.3941274 1.1363727 0.941965 0.7096798 -0.16023557 -1.1707684 -0.5959308 -1.2033131 -1.0775046 -0.99736995 1.1244776 0.3416898 0.7352249 -0.059436258 1.1578592 0.084849045 -0.39367807 0.90066 -0.02769226 0.35181364 0.2764792 0.33113447 -0.42736554 -0.8324212 -0.1356382 1.6909536 -0.15453161 0.39189675 0.25194728 0.08810967 0.49197656 0.12361656 0.17200162 0.1969545 -0.52197015 -0.6695868 1.2937946 0.3737741 -0.3787567 -0.049187586 -1.3839126 -0.41449672 0.34003192 -0.16447856 0.046507776 1.8630652 -0.3707345 0.70676374 -1.5955923 1.4360379 0.8804657 0.49598482 -1.654513 0.70076793 -0.3363894 -1.1258205 -0.74946034 0.015782414 0.8224276 1.1109307 0.9226355 0.6875881 -1.4753627 -0.31484315 1.472269 1.7358872 0.7804305 0.6170335 0.9742305 -0.20436484 -0.77894956 0.2952746 -1.1842579 -0.3269215 0.3435917 -0.88049954 -0.6572113 0.78175277 -0.2865481 0.3592005 0.50410426 -1.3146384 0.501877 0.36973774 0.72478104 -0.24421026 -0.5493794 -0.17736189 0.44252715 -0.00053138816 -0.5724751 -0.17521185 -0.5647007 0.4924529 0.57442963 -0.24997579 0.9620361 0.084441185 -0.039195668 -1.4643564 0.5992268 -0.3838969 0.07061242 -0.40498745 0.21053894 -0.4454657 -0.6084015 0.101258494 1.04946 0.7443958 -0.7911476 -0.5022942 -0.1285594 0.4116927 -0.126121 0.4594645 0.73982275 1.7602808 -0.14007899 0.031472124 -0.33834767 1.207328 -0.8542468 0.10083817 -0.18801899 -1.089099 0.5028895 0.14740862 -0.13794817 0.7396742 -0.6962657 -0.35666934 -0.31588966 0.1568662 -0.23259525 0.25458235 -0.19691297 -0.46746558 -0.47622827 0.58966213 0.5815023 -0.6694097 -0.06358891 0.22207388 0.7807088 0.5172219 0.069582686 -0.37940082 0.42915002 0.45286763 0.87729406 -1.0728401 0.028419498 0.5670213 -1.4926893 0.016580049 -1.59138 -0.23042141 -0.3097618 -0.39962736 0.4887065 1.3429402 0.9932209 0.20110363 -1.5666238 -0.93782324 0.46293336 0.47723866 -0.49680406 -0.7724937 1.2507706 0.53262466 0.32910818 1.0138946 -0.04008266 0.19692828 0.27853757 0.64151394 0.11206582 -0.57430595 -1.1922699 -0.8801803 -0.2924809 0.91210496 -0.59772563 -0.13234226 -1.2912408 -0.36682397 -0.50440073 0.047777966 0.16176014 0.1846405 0.713222 -1.2518495 -0.6231853 0.5089457 -0.10437834 -1.5096828 0.005606766 0.2075533 -0.22568984 -0.2000071 -0.68472505 -0.1446657 -1.3044064 0.37808323 0.3795136 -0.9658113 0.81801784 -0.2899428 0.49521434 -0.10816911 -0.42537346 -0.47585154 -0.14207363 -1.0572362 -0.61732256 -0.70942783 0.90985 0.94992083 0.53428143 0.8510626 -0.2856789 -0.18176676 -0.37151963 -1.0051228 0.5058266 -0.058364246 0.30122447 0.4426389 0.69833845 1.0302073 -0.46549186 0.93129975 0.10909625 -0.605669 -0.047126133 -0.09104856 0.044847004 -0.31684202 -0.48562193 0.25915888 -1.0087168 0.7244458 0.47053212 -0.59337896 -0.42594892 -1.0944071 0.5914941 -0.83300006 1.3229418 1.4530926 -1.3969525 1.6092213 -1.6032755 0.8426756 1.3889713 1.7622632 0.23595606 0.77087957 0.08892616 -0.6024346 0.02417771 -0.75156456 0.2917748 -0.27156156 -0.65422815 -0.29189938 1.2702668 -0.020841049 -0.11452488 0.1598942 -0.26655343 -0.6710069 0.22938058 0.22778836 -0.7067492 -0.14228702 -0.47165176 -0.8803074 1.3689259 0.6808369 -0.7437439 -1.3199418 0.7380585 -0.28809878 0.2269558 -1.3681151 -1.156851 0.3749092 0.82003355 0.23107272 -1.0970643 1.4664447 -0.15719527 0.36864197 -1.001922 0.3419413 -0.7687496 -0.6531332 1.9308692 -0.07822137 0.2269573 0.29225224 -0.16153792 1.061808 0.8722433 -0.7489387 0.34792414 -0.49589634 0.9756131 -0.7992122 1.7118638 -0.5863405 -1.5213861 -0.905198 1.3848499 -0.46050543 -0.25796714 -0.79180866 0.030169107 -0.2622307 -1.102536 0.68297833 1.3372208 0.16039118 -0.04417702 -1.2544814 -2.1233957 -1.247897 -0.74286 -1.0445849 -0.5360665 -0.7898159 -0.026452769 -0.13153684 0.3298648 -0.76792055 1.0881923 0.27527714 -0.35365137 -2.6425915 0.258507 0.30684665 0.5496599 1.1405041 1.2576975 -0.7685856 0.12447628 1.198949 0.91639817 0.57492423 0.57777524 0.74014443 -0.123798504 0.26673174 -0.5309505 0.1454581 0.7901255 0.6034901 -1.6045905 1.380419 0.6238693 -0.49282554 0.2299888 -1.2830145 0.837233 -0.22313033 1.2102461 -0.9558948 -1.3983394 0.076517545 0.086383104 1.6459583 -0.7185673 -1.3708993 1.3702613 0.8047944 0.30889723 0.37386894 -0.3716424 1.0551625 0.93219227 1.9252414 0.09213011 1.3816922 1.4456918 0.17149381 -1.6216143 -0.90472627 0.5888664 -0.99771035 0.71562433 0.55681247 -0.42117298 0.6238793 0.996226 0.21735881 0.16745427 0.9784552 -1.3291641 -0.041679047 1.1872029 0.7845184 0.36233252 -0.24747404 0.37847006 0.79955953 0.9329195 -0.8125959 -1.2062422 1.3946347 -2.0696166 1.798258 0.6392552 -0.91514325 -1.0062472 0.9622061 1.2540671 0.65070903 -2.2426648 1.255464 -1.7290373 -0.012380359 1.8999852 -0.6811088 0.29017863 -1.1398189 2.3938372 0.24790606 -2.1497755 1.303378 -2.6127288 -0.6948872 -1.4401617 0.24891621 -0.3247502 -1.214408 -1.3966078 0.32209963 0.40180337 -0.023241954
es -1.686522 -0.75385624 -0.1648602 0.41776547 -1.371725 0.22255912 0.8684787 -0.41843855 -1.8618037 0.96305597 0.5351657 -1.6946181 0.5352942 0.064585745 0.2338492 0.052442823 3.00584 1.3658482 -0.7824526 1.0189627 0.7000752 -0.075644694 -1.1860366 0.039596915 -1.115512 -0.019265912 -0.49083018 -0.8101895 -1.1765176 -1.352648 2.1681604 0.70828533 0.92862725 0.24375874 0.16155571 -1.682536 -1.1449305 -1.4581656 -0.16650775 1.4476341 0.9867446 0.24318895 -0.61876416 1.412697 -0.007305956 -1.276324 -0.02065396 -0.09601499 -0.14835894 -0.023904398 0.9948002 -0.5379949 -2.0418992 0.48835656 0.14610066 -0.53186053 -1.0529174 0.85635877 0.45919868 0.66865593 0.0155412555 -0.006829218 -1.0275527 -1.0385147 -2.8965125 0.35040087 -0.13316627 -0.009149433 -0.44342768 0.44180498 1.3034556 0.14711003 -0.96253604 -0.21181552 -0.8784372 0.9806615 2.8144 -0.18041806 0.0912461 -1.2641721 0.7155621 -1.0534238 -0.28099155 1.1277548 -0.19550976 1.1000919 -1.2772554 0.6099126 1.4683905 0.93762535 1.2298812 -0.8351934 -1.6195052 1.941981 0.77138805 0.36239988 0.73997736 -1.1767216 -0.60034645 0.6279296 0.4662604 0.949219 -0.3538455 -0.9669367 0.62410456 0.91480464 -0.5237133 -0.09805748 0.5241885 0.19457504 -1.0677904 2.3915908 -0.64829606 -2.0668309 -0.37476996 -0.23608369 0.5089507 1.4263757 0.10422888 0.058468208 -1.7860692 -0.14724924 0.016883476 -0.9782126 -1.2146373 0.6788876 0.69693476 -0.5304462 -0.7542443 0.4509908 1.4407765 1.1077516 -0.4663951 0.9697849 -1.0359825 0.47817016 0.92269397 0.103189714 0.9776116 -1.0006078 0.9513188 1.4795197 -1.086398 0.9400774 0.66495305 1.2977176 -0.85648024 -0.16308193 0.039650947 -0.6255103 -1.5428878 0.61572915 -0.6545593 0.7668661 -1.7228241 1.00151 0.1366768 -0.67937183 -0.093521535 -0.062081844 0.54242784 0.1976597 0.09125181 -0.07956002 0.20913666 0.71507525 -0.22378 0.15751778 0.16778333 0.20789927 1.2030799 -0.30431253 -1.0772147 0.43597865 -0.0015006639 -0.511756 -0.22128955 -0.9575574 -0.0056713987 0.90354925 0.83065945 -0.6648667 -0.1572354 0.12554432 0.901348 -0.547453 0.5570316 -0.07388758 -1.218256 -0.4322044 -0.6966555 0.0145019535 0.33772802 0.39696947 -0.49663797 1.3920336 -0.002138086 -1.2582382 -0.4662358 -0.14290924 -0.30800065 -0.38972896 0.067713544 0.6314769 -0.060245443 0.6803998 -1.1562402 -2.5205357 -0.15657404 -0.71834445 1.8809347 0.11046541 -0.9681504 2.227776 -0.5153868 -0.42105427 0.20914418 -0.8520609 -0.6729176 0.5096171 0.07052696 -0.8952428 0.86219144 1.8587872 0.18433486 -0.95415777 -0.24440229 -0.27650025 0.40015653 1.3840638 -0.70355344 0.27855632 -0.253517 1.0041239 -0.9739167 1.7052145 0.73832697 0.19753692 0.0359638 1.2167556 1.4920205 1.1218653 -0.32377356 0.19393773 1.115146 -0.35302243 -0.11536802 0.5621567 1.1749567 1.6400676 0.28604215 -0.69271404 -0.39422292 0.21276277 1.6940377 -0.081615716 0.96230906 -0.8915601 -0.47272825 -0.31103584 0.68994653 0.034689814 -0.004208921 -1.1797351 -1.5743935 -0.022338046 1.0084319 0.1906799 0.7663556 0.60951287 -1.3151205 -0.24210997 -0.29762754 1.2662927 -0.01104562 0.8834624 0.21359755 -1.4502541 -1.0221642 -1.3745201 -0.48049405 1.0439165 1.3081721 0.5256084 2.4115543 1.3477877 0.828846 -0.5929703 0.6830944 0.058787007 -0.0068202843 -0.058129244 -0.9647654 0.48810887 -0.9471113 0.8142004 -1.5996755 -0.053760964 -0.8150745 -0.8241343 -0.955823 0.41920674 2.1356423 -0.8845554 -1.3261392 -3.1909602 -1.6408654 0.16479121 0.69856244 -0.8484655 0.1827255 -0.37529075 -0.5461403 -0.33801988 1.1134596 0.54473996 0.5401784 0.021019066 0.31241193 0.4874542 0.6412835 0.7324685 0.33049935 -0.9028899 0.26365918 -0.66681623 1.0238554 -0.49912825 -0.5005626 -0.30816585 -1.955282 -0.09490328 0.7776368 -0.8386106 -0.6939489 0.11517064 -0.04317857 -1.6367942 0.7690144 -0.32072005 0.39011624 1.887913 -0.86420256 -2.0820282 -1.4905525 -0.1297936 -1.0668105 -0.10238952 0.2878742 0.6608259 -0.64908653 0.61931926 -0.5590356 -1.0236984 -0.6442333 -1.2598797 0.0009362171 1.4042658 0.5060373 -0.26445037 -0.19327441 0.5278884 -0.025288412 1.2988722 0.8166763 -0.93962526 1.0339376 0.71786124 0.5988922 -0.010483328 -0.940343 -0.64087653 -1.2902718 -0.16347933 0.40956262 -0.034625232 -1.4444321 0.13062781 -1.1440022 -0.69387096 0.5703084 -0.6040612 -1.4180672 0.59256256 -0.75308585 -0.94867694 0.33741143 -1.512692 0.23299941 0.7124529 -0.33889118 -0.85006404 -0.8572453 1.1923896 -1.1787834 -0.10732325 1.8277994 2.019238 0.32350716 0.9933028 -0.070593715 0.9613476 0.3710909 1.7816007 -0.36070693 1.0385578 -1.9857816 -0.78744316 1.1951953 -0.07719187 -0.52488387 0.005388352 -2.5088127 1.2590101 -0.11847283 0.789167 -0.23422118 -0.1005473 -2.289749 -0.22442295 -0.94966185 0.70466137 0.21987566 0.48880807 1.0468171 -0.4135093 0.08198325 0.119902536 -0.28746194 -0.59892315 0.35164472 -0.23792337 -1.3758097 0.8959655 1.7952203 -0.38743308 -1.10888 -0.9257251 -0.28730994 0.102508575 -0.34712788 -0.8557737 0.12951176 0.79848766 -1.2691101 2.1297793 -0.28066626 -0.7296261 -0.13660194 -0.06373676 1.6719017 -0.44569612 0.12230594 -0.7044445 1.3979962 -1.1909237 -0.9226726 0.5367811 -1.4172757 -0.2739269 -0.33771116 -0.023444118 -1.4539864 0.48736867 -0.37664896 0.048412953 0.4039031 -0.6163246 0.9917757 -0.20520826 -0.39783496 1.2699143 -0.30360344 2.1898124 0.3433113 0.7162768 1.401814 -0.2082324 2.504878 -0.34861457 0.33138037 -1.6358396 -3.334748 2.439294 -0.81394875 -2.2295272 -0.22257867 -0.5288271 -1.223405 1.8834243 0.8705782 -0.80988204 0.9508187 -1.8267294 1.8861806 -0.6179841 0.32302767 1.527663 2.302155 -0.7766979
la 0.52824634 -1.832992 3.244076 -2.3056602 0.3623306 0.3382967 1.6932974 1.4023176 -0.9118958 -1.0594827 -1.0315266 -0.09390437 0.49876678 2.7331731 0.35125184 0.55917037 -0.34554723 0.24955563 0.7326806 -1.4025745 0.2869198 -1.8656491 -1.9147459 0.68711114 0.1685079 0.40005332 0.61331016 -0.5342375 -0.9687491 -0.61809623 2.1110866 1.5863822 0.3299555 -1.6710378 -2.1938965 -0.40938422 0.62943757 1.6443316 0.9646566 0.12338726 1.1957339 0.6841539 1.3153574 -0.8423557 -1.2974681 -0.7243033 0.3586582 -1.895912 -0.85750365 0.2575967 1.379338 -1.1797458 0.33929673 -0.61695725 1.4246665 1.4078622 0.48507655 -0.8609691 -1.5199413 -1.182726 -0.6435985 -0.6444441 -1.0944864 0.51502794 -0.13382873 0.34241015 -0.32345048 0.1283523 -1.2303923 -0.40627834 0.44908315 0.7268054 -0.56592786 1.1816524 -0.33223483 0.19825494 -0.73626125 0.0046717552 -0.87544876 0.94425005 0.6001787 -0.40286058 0.5158821 0.7436239 0.34482202 1.0364041 -0.43676096 1.3746537 -1.3744538 0.16922727 1.1475016 0.30989063 0.90227264 1.1730489 0.2911051 0.7115822 1.1309245 -0.94572127 -0.3668373 -0.1557894 -0.77286667 1.4599627 0.070885524 -0.992547 -0.24035074 -1.0288632 1.7412881 0.23778972 -0.4496243 -0.8141487 -0.16213095 0.34383324 0.4590538 -0.40645623 1.0492394 0.5812106 0.5486825 1.1615746 0.23635136 0.38093695 0.4084279 -0.72558767 0.1416808 0.0076763663 -0.89831364 0.068375446 0.11485494 0.5657026 1.2011211 0.27468243 0.37576658 -0.0062156147 -0.6786679 -0.8833063 0.2660341 0.13991304 -0.49199864 0.6041827 -0.4001171 -0.59996265 0.034463927 -1.1612712 1.0381557 -0.44981554 0.39969397 -0.541444 0.3859106 -0.37655365 0.13736252 -1.0570638 -0.8193798 -0.9058338 0.42311355 0.19794163 0.8114541 -0.22049323 0.21865565 -0.7792933 0.19253807 0.8682653 -0.7235773 0.06728157 0.0073215435 1.4675409 0.28080097 0.43969506 -1.2913423 -0.29118276 0.46464354 1.3691907 -0.195618 0.80125225 0.8946359 -0.9016876 -0.41542032 -1.8277122 -0.13170873 -0.93450844 0.53237635 -0.95372266 -0.020253843 0.3629306 0.103956826 0.094243236 -1.3108021 1.2098417 0.25689578 -0.16864063 1.8995343 0.9941152 0.4130373 -0.057759143 0.3959076 0.4774112 -0.9017424 -0.36851525 -0.20073467 0.6615403 1.1256598 0.1040001 0.13670301 0.055756763 0.37043014 0.55889875 -0.020914419 0.7093507 0.5705356 -0.7197408 0.31122866 -0.67662394 -0.31223935 0.7965194 0.48655716 -0.2400766 0.50482154 -0.75254285 0.10302214 -0.8917489 -0.39295906 -0.73657215 0.7186887 -0.98575747 -0.23013493 0.4116556 -0.66745764 -0.53795135 1.149462 -0.33746207 0.99396795 0.45316434 0.8481941 0.096353374 0.4331365 -0.025296323 -0.41537252 0.30859262 -0.27314925 -0.42919818 -0.92710817 1.1894364 0.69977915 0.3682594 0.03988283 1.0262822 0.6429446 1.9958379 0.7651622 -0.15400086 0.91359 1.2887763 1.363574 0.85325253 -0.4177357 0.5579568 1.103513 1.1427991 -0.57527465 -0.8182089 1.0377642 0.64134353 1.0334234 -0.00029569608 0.04735211 0.21142456 -0.3676671 -0.72890764 -0.0712748 -0.50412387 0.509008 -0.9837082 0.91841626 -0.8673753 -0.50855184 -1.2268631 0.9691246 -0.18080619 0.014552738 -0.9291137 0.08759089 -0.66106623 -0.50693846 -0.6028032 -0.27386183 -0.17792791 1.2537969 -0.9198774 -0.07902998 0.67544824 0.36843285 0.8230461 -0.08082791 -1.0257572 -0.54035574 0.7157475 0.7707716 0.07490658 -0.34257048 -0.044330508 0.34065476 0.036265124 1.3694012 -0.14888698 0.87384313 0.031747375 0.3248581 0.7425577 0.279454 0.49771792 1.2083254 0.4409827 -0.88530016 0.24448994 1.1234664 -0.0004244999 -0.45794106 -0.44048828 -0.6130319 -0.52528465 -0.3948508 0.69915247 -0.66584164 -1.8763992 0.26225954 -0.4316867 0.22818315 1.2177473 -0.3063951 -0.20668373 -0.6263017 0.21434748 0.16916032 0.3930556 -0.6584279 -0.8491353 -0.6713955 1.5461258 -0.5412617 -1.6530799 2.143504 0.5158394 -0.1645841 1.6806644 0.18797582 -0.37063637 -0.100520276 1.2898616 1.1980726 -0.8391379 -0.5438321 -1.9160186 -0.9134194 -0.34082812 -1.4539464 2.18628 0.34214413 1.0100027 -0.5734393 -0.123606436 0.019429542 -1.9707303 -0.40407324 1.0128165 0.6921762 0.29333448 -1.0961357 0.2399031 -0.3316637 -0.6838895 1.4450467 -1.0428754 -0.108536005 0.5392025 -0.651123 -0.17153117 0.15876457 1.6960065 -0.4282498 -0.98582107 -0.8925939 -1.7971038 1.4235777 0.65995604 0.79754907 -0.15632957 0.5914946 -0.7344234 0.37595418 -0.76085377 0.10689009 -1.3852125 -0.8627869 1.3064713 0.49606404 0.08310724 0.0159131 -1.2657579 -0.44178107 0.5960979 0.73039925 0.30835113 0.87581164 -0.5864337 -0.90821224 -0.1216358 0.9825643 -0.8994079 0.03729374 -0.014163363 0.7113658 0.3639037 -0.6539314 -0.08173336 -1.048189 -0.7271947 -0.11158731 -0.5813922 -1.2638465 -0.22747885 0.16264081 2.0208848 2.3049982 -0.22837561 -0.2786965 -0.32535532 0.49237067 -1.1892914 -0.7775591 -1.1605536 0.9634965 0.26788196 -0.5041798 -1.6567329 0.68271995 -1.0046219 0.55263066 0.39037102 -0.6068444 -0.07960538 0.2862865 0.25318795 -0.04266173 0.116580024 -0.073180445 1.3474098 -0.9328409 0.380771 -0.21431734 -0.36298576 1.4957551 0.40899 -0.7015664 -0.87535584 -0.023580976 1.8844366 1.2162828 1.4638019 1.3108658 -0.60775304 1.0201827 0.015735902 -0.36619034 0.24460213 -0.5920717 -0.5316951 1.1409765 0.19925232 -1.9064292 -2.4538162 0.49834114 1.3191162 -1.8619543 1.7003974 -1.953026 -0.11555171 0.40808684 0.017896444 0.21394259 0.6539682 -0.47851834 -2.5541031 -1.419195 -3.3722892 -0.11354102 0.02461469 1.5967581 0.12986766 -0.23387143 0.18528153 -1.3455662 -1.0859784 -2.242545 0.27825597 -1.0338125 0.8141538 2.1461344 2.1413949 0.36029047 -0.7812668 -2.7479856 -0.22723974
y 2.0668104 -0.0800554 -0.08674856 -2.487212 -1.1649268 -0.089446254 1.007232 -1.2021427 -0.17638183 2.323427 -1.0743992 0.39560983 1.9287627 -0.059909232 -0.90616596 0.040027216 -2.3244338 0.5140133 0.42374757 -0.615212 0.13009343 -0.8093703 1.5694497 0.31394193 -2.8277874 -1.51275 1.1154195 0.24845867 0.44071478 0.12180162 1.280945 1.1382773 -0.44890586 -3.8822315 -1.2469649 2.5142179 0.84360003 2.3056092 0.11908344 -1.3371242 2.9434662 0.5010004 1.309959 0.681405 1.3462021 1.1243237 0.6347558 -0.10097102 0.19773275 -0.5973035 -0.29055 -0.8177331 0.6928905 -0.9682813 1.6174049 1.9800136 0.05287092 0.6042204 -0.8004515 -1.266336 -1.2891053 0.7881376 1.9400121 0.8616738 -2.2461708 0.95164126 0.023233311 1.7168064 -2.1914601 -0.99783206 -2.2545173 0.56365925 -0.3846902 -0.36954305 1.7756585 0.9198202 -0.700581 -1.0989102 -1.9073418 -1.1537668 0.19719402 0.8532591 1.022737 1.920101 0.41851968 1.5476556 0.36561888 0.81545734 -0.6138878 -0.3498405 1.606626 -0.15999348 -0.9917614 0.08954256 -2.8984087 -0.35595885 1.5938715 -0.45205143 -0.23093769 0.81818444 -0.7613394 -1.1940137 0.2115326 -0.5785211 0.18191104 1.3870769 1.6913682 0.06864019 -1.7264665 1.0708053 2.4088695 0.8665635 0.5290816 -2.7592363 2.1869004 -0.4065357 1.3839666 -0.7381126 -0.1947186 -0.29947233 0.44166538 -0.96329457 -0.5142948 0.5837394 0.25006604 -2.1027942 -1.5254551 1.6241305 -0.404856 -1.1635658 -0.3580005 -0.62630737 0.070927374 0.37823105 2.0581343 0.47711512 2.2466946 -1.6416732 -1.4593065 -1.2074722 -2.519952 -0.1659488 0.5354497 1.023053 -0.89683753 -0.13911603 0.33414912 -0.5562318 0.75083303 -0.4637172 0.03567493 0.5376168 1.2792445 0.78047705 -0.3461574 0.392301 -0.2311392 1.2040523 1.0351576 0.19466595 -0.04873354 -1.3424995 1.5312222 3.276067 -0.2617862 -1.3726984 -1.9158094 1.2409657 1.1007606 0.0316616 0.100588635 1.711281 -0.15498513 -0.99897325 -0.9847813 0.5499705 -1.3764913 -0.07780599 -0.22538136 0.18536267 -0.9753965 0.4415843 -0.2512753 -0.8552854 -0.43640664 0.5527719 -0.46148372 0.07840986 -0.03069582 0.27302587 1.9185658 0.34313202 2.3033922 1.2816821 0.031053998 -0.50133723 -0.82160324 0.17478365 -1.5014223 1.1252837 1.2494642 0.550342 -0.7079119 0.55123365 1.4074445 -0.9901045 -0.46474254 -0.86561763 -0.3887159 -0.086470775 -0.38945848 0.0908375 1.269791 0.21601325 0.70140916 -0.4278892 -0.5410302 -0.7477447 -0.73051125 -1.538119 0.50393397 0.52808434 -0.7068699 -0.08959277 -0.10748282 -1.0037634 1.2577071 0.30379155 -1.1119955 1.21638 0.8175491 -0.54756296 -1.2702506 -0.9033457 -0.4022773 0.8161071 0.4116899 -1.8081235 1.1777445 0.23629206 0.19829574 -0.7028403 -0.26298657 -0.74672055 -1.3484985 -0.74093485 -0.61433756 0.31094158 1.6293962 -0.8537041 -1.5155783 0.40916222 0.93479604 -1.312966 0.017318984 1.1925855 -1.063314 -1.0173112 0.60699165 -0.07703207 -1.3306781 -0.080610745 -0.56096774 -0.5975816 -0.08370645 -0.5202696 0.64986867 0.42252386 -2.5026817 0.75387 0.7243144 0.17223085 -1.2077568 0.9978692 -0.08600757 -2.1194794 -0.16212876 -1.6286099 -0.0011900057 -1.4871137 1.794974 -0.30512574 -0.028990671 0.8047872 -0.9270435 1.2603686 1.2537345 0.09452837 -0.7786563 1.009606 0.4393474 -0.25348938 -1.126759 -0.44309285 0.77950823 -0.26520678 1.6113915 -0.35806438 2.0940058 -0.8043531 1.1528597 0.20039499 0.691101 0.22444722 0.18777852 0.86496544 -0.6119329 1.2446584 0.6410376 -0.4072179 -0.08817129 -0.67729205 0.9285787 0.26779673 -1.4407697 -0.7741981 -0.3177068 0.032230925 -0.049998254 1.588765 -0.64308995 -0.6492521 -0.022476526 0.56587803 1.1361594 0.3191536 -2.935664 2.246341 1.1743453 0.089995995 1.7437178 1.0777138 0.19350576 -0.98200274 -0.6983441 -0.05944365 -0.3948781 0.6310673 -0.54475063 1.5647087 -0.71278733 0.93398064 -1.2392554 0.11764524 -0.7431777 -0.18431401 2.5707378 0.22820576 -1.1737375 0.44530907 0.28713056 -1.2013739 0.16591416 -1.5586262 -0.3189312 -1.1386178 -1.1879228 -0.83951217 -2.0294635 0.13061073 0.26883334 0.8745396 -0.79871005 -0.6237333 -0.2113946 1.2735605 -0.1791471 0.76512307 1.2922007 0.6813798 0.03231795 -0.26687467 -1.726712 -0.17553338 1.4694254 -1.1545395 1.1902262 -0.09385484 -0.85371983 -0.84199053 -0.95070034 -2.5848455 -0.78717506 0.6353685 -0.48867202 -1.05702 -0.8685738 1.2657437 -0.19265507 -2.1240797 1.9461112 0.10837713 0.6482777 0.9096695 -1.2658356 0.68474656 -1.1457591 0.06410877 0.8575731 0.8762082 1.2581182 -1.3518866 0.64802134 -0.57682985 -1.1937155 0.6245247 0.32634804 -0.07936081 0.9732959 -0.0775762 -0.8855637 -0.22862008 -2.4512045 -1.770221 -0.24819025 -0.68267345 -0.36879042 -2.0530226 0.29397118 1.4758918 0.55625993 0.94659495 -1.4267498 1.5316685 -2.1304216 0.021292664 1.7288176 -1.0120932 1.3428197 -2.349375 0.4173522 -0.23654364 0.95972985 0.16723554 0.75542545 0.10053544 -0.99078834 -1.3153903 -1.189739 -0.4702765 -0.5192013 -0.6328328 -0.29269627 2.1573627 -0.07630754 -0.5602687 0.25269496 0.41964936 1.9365151 0.9749563 -1.0168236 -0.11786025 -1.415138 0.38636553 -0.19543274 0.84136534 0.39932963 0.35703698 0.78299004 1.50827 -0.6314852 -0.95581996 0.7239335 1.1277936 1.0111399 2.416158 -1.2010915 -0.5648773 -1.783967 -0.0147037115 0.14080301 0.78293216 -2.2558534 -0.35699 -3.313161 -0.33856866 0.08650398 1.6055701 -0.75100344 -0.14877793 -0.9232725 -2.0605865 3.090822 -0.76011175 3.1383648 -0.052176487 0.63732845 -1.3723841 -0.3991154 -0.43701422 -3.6148896 -0.43372566 -0.083083495 1.7425642 0.765888 0.76141447 0.50257576 1.3959433 2.0969732 1.7029699
un -1.4662967 1.1346722 1.4719722 2.001487 -0.121757716 1.0808259 0.52378964 0.46359992 -0.75572556 -0.3413468 0.41760615 -3.1246006 -0.09663064 2.1244657 2.0287182 -0.68632585 -1.1509789 -0.65696836 -2.3721404 1.1161529 1.2224051 -1.3704702 -0.5313532 -1.2019668 -1.4355389 1.506025 1.7673368 0.44824165 -0.24910162 -0.24568458 -1.1505593 0.46246547 0.023199856 0.11341349 1.248906 0.01486894 1.5953007 0.06326402 -2.03276 -0.25892565 -0.6024902 0.043666992 0.12520742 -0.20211387 1.3264127 -1.1024628 -0.6591964 1.0231735 -1.1507434 -0.874755 1.3826002 -0.71722114 -0.44180873 -2.1457834 -1.6024969 -1.1987802 1.2880017 -0.08764606 -0.23063797 0.6088789 -0.064640455 -0.9529067 0.97738457 -1.0627728 -0.5682754 0.39131355 -0.990481 0.89588654 1.3317941 -1.4361023 0.119171165 -0.8470207 1.0814388 -1.3338927 -1.707765 -0.00876319 0.64859056 -0.16396093 0.5103085 0.8736496 0.83245593 0.28200537 0.85645294 1.9135201 -0.5350134 1.7851778 0.93959606 0.21882972 1.3634069 0.36676267 1.1848768 0.3116962 -1.015212 -0.3455234 1.2533913 2.2014177 -0.21455802 -1.1003463 0.38180014 -0.77039057 -0.5885586 0.17070466 0.26513636 -0.630409 -0.5261844 0.4635273 0.31983295 0.80575407 -0.0034823462 -0.26977733 -0.5793458 -0.4398882 -0.11222197 -0.6318321 -0.15003502 -1.1490098 0.46151897 -0.3200787 0.66118777 -0.23659055 -1.5025628 -0.59216017 1.5768777 0.95635056 -0.37690887 -0.25167856 0.16304813 -0.14828135 -0.5605431 1.0281241 1.0509919 1.0365933 -0.613932 0.8263965 -1.4770893 0.44533998 -1.1814828 -0.040528234 -0.024991853 -0.6821736 -0.41826499 0.44743013 1.2003809 -0.30253795 0.00598969 -1.0926573 1.0993055 -0.2529371 -0.5328875 -1.1029439 0.5575682 0.2210932 -1.0185472 -0.4450016 0.25568795 0.143693 2.112056 -0.04483591 0.123360015 1.2126837 0.54515123 0.18009861 -0.57499695 -1.8155973 -0.018943902 0.26015615 0.37228158 -0.6075642 -0.62352926 1.782522 -1.2611684 0.81721663 0.67684734 0.08475394 1.9116526 -0.22488853 1.3460982 -0.6939209 -0.47772765 0.77476096 1.2830517 -0.6426415 -0.9010407 -1.091347 0.022305433 -0.19555792 0.119265504 0.55078137 1.4696286 0.79017085 0.09284512 0.028137777 0.5272251 -0.10284449 -0.7692465 0.053633105 -0.23456147 0.020490188 -0.215905 -0.030350689 0.24198273 0.057523217 0.27225322 0.63224626 -0.17924647 -0.9049974 -0.12361743 -0.12848419 0.20692657 0.73036975 1.4376197 -0.31363955 -1.7485859 1.4006335 -1.0592052 -1.0990624 0.38434565 -0.02845551 -0.12932532 -0.5653065 0.5983335 0.39886343 1.5500249 1.0818688 -0.81383616 0.04297295 0.6544635 -0.371146 0.35717294 1.0798732 0.7524005 -1.0323855 -0.90199393 1.5231502 -0.1271399 -0.18941739 0.75562143 -0.76577324 -0.95226127 -0.67312694 -0.51971537 -0.97389555 0.24244821 1.3249441 0.29322988 1.1235331 0.9973375 0.72668713 -0.40552363 0.9804041 -0.8302064 -1.3860409 -1.6222119 0.139666 -1.0518911 1.6739658 -0.89049613 -0.7226686 -0.2836471 -1.098901 1.0045551 1.1914307 -0.4088248 0.27399853 0.43945864 0.66348684 0.34665024 -1.259231 0.50673914 0.27707335 -0.5337461 0.018271279 -0.31351194 -0.48388135 0.5675932 -0.28915516 -0.7024863 -0.17323053 -0.11281219 -0.4874477 0.61396116 1.3188787 0.43437645 1.2044376 1.7576995 1.2268369 1.6429534 -0.0021241019 -0.39755535 0.6236352 0.105180085 0.09725029 -1.345416 -1.0622321 -0.3246932 0.0072706603 -0.46896043 0.5569234 0.3333143 -1.028523 -0.4574795 1.7756507 -0.037486 0.88849604 -0.944973 -0.45661175 -0.101417236 0.91318566 0.3788698 1.1793196 0.3013218 -0.19875345 0.23627691 0.9276281 -0.7772597 0.44455647 -0.82094514 -0.7167461 1.8652067 -1.5867463 -0.34016702 0.3471515 0.6384574 -0.1236283 -1.1962531 -1.0282159 0.73124295 0.015773512 -1.7739568 0.75015634 -0.51040417 -0.8252336 0.969284 -0.06500315 -0.6317135 0.7434863 -0.40225276 -1.5692472 0.73682404 0.76420575 0.4385357 -0.35956848 -1.1057036 0.23841146 0.21708436 0.34399348 -0.37513536 -0.72581965 0.84892154 1.4237928 0.05266962 1.1018604 0.31341437 -0.4441069 -0.34465465 -0.49601054 2.2840812 -0.7145188 0.8328067 -1.6796267 0.19709165 0.6043933 0.8686188 -0.005363869 0.39990157 0.15771331 1.0327326 0.49352947 0.27532187 -1.9754786 1.2369657 -0.8684724 0.2649076 -1.1620244 -0.18130913 0.86019987 -0.54854023 -0.09696151 -0.8003396 -0.021958072 0.427439 1.4802586 2.141958 0.3912998 0.04991962 0.097343035 -0.09868909 -0.75950074 -1.2991105 0.27825478 -1.0295701 1.3655019 -1.3405522 -0.56068224 -0.93011737 -1.4239079 1.1337723 -1.4512569 -0.7902828 -1.1327733 0.7545258 1.2842996 0.047417942 0.96081525 1.2105323 0.7049008 -0.3437114 1.2455765 1.074476 -0.21844804 -0.3263759 0.61350167 -1.2142847 0.70403194 -0.4667748 -0.3881102 -0.15448564 0.94748497 -0.7675559 -0.15823977 -0.82895446 0.23105277 -0.97662044 0.936164 1.5016187 -0.2687706 -0.22784086 -0.41794738 2.0312545 0.964062 -1.1681763 -0.3364724 0.38434118 -0.49602813 0.76918256 0.8736888 -1.3304441 1.2058197 -0.3766762 0.12670954 0.6454567 0.85713863 1.7518702 0.78767806 -1.451238 1.0984037 -1.5152576 -0.27934146 -1.610379 -1.0169659 1.3552974 -1.82965 -1.1788371 -0.098359235 0.14228763 -0.65652806 -0.17698249 1.1916493 -0.6521344 -0.037595216 -1.1040412 -0.8237586 -0.7926981 1.3533477 -0.22697647 -1.9367832 0.44828072 -2.1577556 0.40610072 1.2126521 -0.8999762 0.6820653 2.5285742 1.7066941 -1.5593543 -1.8564702 0.8068987 -0.5032626 -1.023842 1.640764 1.7557411 0.2625772 0.3518071 -0.7931846 -3.0795267 -1.1402082 0.28440824 -0.5405839 -2.3529372 0.11176348 0.29097128 -0.45388353 1.469541 -0.72438693 0.36708948 0.7239213 0.14797767 -0.43877202 -1.6332794 -0.96830696
documento 1.6182872 -0.846201 1.0000693 -1.0794613 -0.7257805 -2.611905 0.8459125 0.8215883 -0.6232573 -0.31195533 -0.64647496 0.42572525 -0.39074832 0.7227546 -1.4409498 -0.6324563 -0.6298995 0.66448057 0.7111711 -1.6701875 -0.59028584 -0.4305685 -0.41072658 0.5028816 -0.5068755 0.49757043 0.97418255 1.3764801 -0.8883704 0.99507624 0.19160743 0.15863104 0.6504127 -0.5867786 0.41773906 -0.9268357 -0.81591 -0.47369933 -1.3122077 -1.0424275 -0.99503505 -0.51871544 -0.84652746 1.6264392 -0.1576223 0.8202555 -1.0975672 -0.32195482 -1.0537019 1.273243 0.15901136 -0.33588943 -0.55746996 0.33426028 -0.45254934 1.2583396 -1.9498389 0.5600055 -0.07309877 -0.041338313 -0.58490974 0.30947003 -0.85833025 0.28154975 0.765826 0.0072376872 -0.45389432 0.06864949 -0.9744832 -0.13264959 0.5485399 0.24988021 -1.0857756 -1.1277176 -0.48537707 -1.8380358 0.8386948 0.8111506 1.0083834 -1.1134367 -1.0324636 -0.047679283 -0.6311937 0.46969178 0.06400301 -0.49674883 -1.2909176 0.28146583 0.30911958 0.61443865 -0.45069465 0.43579903 1.8962848 -1.3740994 0.18785027 0.55316705 0.8061937 1.4103744 0.36606166 -0.32611012 -1.0396287 -0.17517209 -0.18942428 0.7134979 0.065701775 -0.76827335 0.7236733 -0.11674993 0.12841977 0.2063062 0.20862372 0.03373382 -0.29609013 0.57339466 0.105090216 0.70406854 -0.48490217 -1.4122621 0.8147353 -0.6038984 1.6169026 0.8467954 0.3896403 -0.14487325 1.1584346 0.86208075 -0.77498025 0.7407929 -0.4169875 -0.66286165 0.11507602 0.23330912 1.9027418 1.3362613 -0.7030591 0.15168627 0.7526382 0.19650827 -0.43855268 0.7664851 0.36544648 0.15461348 -0.28692827 -0.5062781 -0.45946196 -1.328333 -0.27543375 0.6718676 0.5590127 0.49186358 -0.029335309 -0.24076965 -1.1023012 0.112867914 0.8875621 -0.9337043 0.15316175 -0.7132542 -0.004683782 -0.6598086 -0.5327991 -1.5063373 -0.25108618 1.343111 -0.53331584 -0.056824494 0.17429478 -0.40097016 0.72033197 -0.7877354 -0.27556846 -0.7979597 -0.6307028 -0.7852946 -1.7201599 -0.09347979 0.6123952 0.94081706 -0.9073377 -0.12097663 0.87077254 -0.47657225 0.1808859 1.4305024 0.7677792 0.28203008 -0.69612956 -0.22978069 -0.0752967 0.7532499 -0.109153025 0.67386013 -0.75624156 0.48023295 -0.27873525 -0.33881748 -0.37744713 0.47650295 -0.83046734 0.28622812 0.067587435 0.39208147 0.20200948 -0.88895434 -0.20112753 0.24387656 0.77489704 0.6612022 0.32976687 0.42124328 -0.15469456 -1.717459 1.093247 -1.0095395 -0.033901867 -0.33393747 -0.53463817 -0.42391443 1.0603268 0.21107517 0.7534252 0.29419518 -1.6097035 -0.1664582 0.24225724 -0.20133783 0.27040544 -0.12466349 0.30147797 -1.1766429 1.016151 0.37445688 0.5918688 -1.6011583 0.29925448 0.8513531 0.31926242 -0.002235239 -0.25273186 0.17894006 0.20973867 -0.04836432 -0.3428438 -0.16151986 -0.114661895 -0.37779996 0.22880585 0.9703062 0.522434 -0.39456034 0.032851327 -0.62615323 0.68666935 0.060332514 -1.3931348 -0.51207143 -0.3864966 -0.017722841 0.7957392 -0.14988653 -0.6514131 1.0380956 -0.5909305 -0.06543574 1.2124667 -0.5053822 -0.39035738 0.12176889 -0.39820597 -0.0061638355 -1.2821862 0.6899096 0.79483974 0.11366904 0.9779054 0.10206055 1.0166241 0.6235621 0.046102844 -0.20501526 -0.5519881 -0.4874008 -1.3042128 -0.2151705 -1.7714455 0.6470724 0.77987605 1.1567482 0.57369125 0.6241176 -0.20933889 0.3583318 0.6696044 -0.007838957 -0.62153816 0.4718504 0.419572 1.0170404 0.5791015 0.7222344 1.0760261 0.17540818 -0.60517675 0.04448253 0.8172501 0.8167381 0.8492986 -0.18920814 -1.6587584 -0.34936234 -0.16055232 0.9354067 -0.7854303 -1.1326772 0.63724864 -1.1300377 0.23081543 1.1235561 -1.7220979 0.33267927 -0.5343955 -1.1503389 -0.31409717 0.3646931 0.49365962 -0.31317842 1.0142646 -1.4362441 0.024887841 -0.2486048 -0.6097514 -0.8066385 0.9105255 0.37836975 0.5535372 -0.7553082 -1.9692492 0.6799732 -0.9550754 -0.5958884 -0.5828219 0.37769055 0.3372355 0.5158836 0.4884147 -1.3244648 -0.19716035 -0.17454767 -0.3378876 0.18661647 0.09540787 0.004689368 0.18516465 0.40733898 -0.024976207 0.19650929 -1.044101 -0.7175933 0.55886555 0.80662924 0.6171444 -0.34465414 -0.44189772 -1.2224067 -0.17190118 -1.2497523 -2.0200152 0.5266486 0.23022941 1.4884809 -0.08245392 2.18617 2.7239983 0.4949385 0.34737656 -0.051962573 0.4018144 0.3420118 -0.23444898 0.93060714 1.1499966 0.2829556 -0.7993668 -0.25861165 -0.7750017 -0.6607082 -1.5580796 0.45887905 0.6211683 0.95469594 0.07790792 0.011710264 1.065891 1.4607987 1.5497079 0.27579173 -1.2915838 -0.23692226 0.83216494 -0.10639481 -0.9150683 -1.1303053 0.8432303 0.76319027 -0.40712437 -0.79305613 -0.99840254 1.3443153 0.0002249697 -1.4662659 0.5908505 -0.3498798 0.6986116 -2.414231 1.1888593 0.28396222 -0.5450129 -0.14296007 0.1800219 -0.9654244 -0.0071223904 1.8636976 -0.697705 0.812681 -0.81012267 -0.8540932 -1.9181491 0.2809651 0.45382378 -0.23285379 0.7846917 0.008575664 1.1369325 0.18636097 0.14409173 -1.4693127 -0.9179681 -1.2932886 0.13116834 0.116406344 -0.83826363 -1.1798309 0.019077936 1.5097142 0.026676176 0.1671759 -0.64071894 -0.50901496 -0.15909928 -0.89951515 -0.8086337 1.2441453 2.0259926 -0.039739817 0.0036545517 -0.662839 0.19538581 1.3322738 -0.61191905 1.6972703 1.0239499 -0.25130564 -0.31856677 -1.3527877 -0.98584694 -0.1511121 0.026595933 -1.5455943 -1.0338012 0.14544755 -1.6758487 -2.141663 1.3828458 -1.0094385 0.020271044 1.9399214 -0.5984583 0.44021675 -0.688421 0.9885753 -0.5100248 -0.5158033 -0.45387164 -0.9895372 -0.95416605 1.0528992 -0.8926544 -0.77230114 -0.38732666 0.6647824 -0.87005836 0.13317573 -0.812184 0.7157835 -0.8940611 -1.336239 -0.48193723 0.39553416 -0.016429335 0.23362018
sobre -0.30964527 0.26272318 0.23450476 -0.26883143 -0.30241743 -0.07620519 0.26673225 -0.21286155 -0.06496767 -0.22911607 -1.0204265 -0.6840751 0.62735647 0.08641183 -0.40822273 0.22626962 0.14837007 -0.4668109 -0.47208837 0.18502577 0.05634859 -0.22160953 0.43711364 -0.29237708 0.18201645 0.5529753 -0.5540769 0.34723556 0.04413632 0.33860904 -0.80910647 0.01003969 0.7981958 -0.1597841 -0.44313642 0.22610906 -0.3743699 -0.08190542 -0.056953028 -0.5853548 -0.18060313 0.32100153 0.3264437 -0.1800669 -0.029970728 0.12287937 0.036620177 -0.4452581 -0.034909546 -0.13793276 0.10653257 -0.38529053 0.050496895 0.06648727 0.29611382 -0.042321548 0.0073405374 -0.1549538 0.0013682623 -0.83878356 -0.5039249 0.2951736 0.09442643 -0.26475555 0.36297458 0.15824944 0.37796286 -0.5917428 0.5085139 -0.32764676 -0.6087866 0.56631446 -0.16496803 -0.20572615 -0.5728436 -0.3839901 0.15157574 0.10924941 0.18570045 -0.2994806 0.23962645 0.056546006 -0.31378493 0.24229792 -0.2881887 0.045774337 0.33171958 0.14656758 -0.12784106 -0.2086317 -0.2677605 -0.28843603 -0.06408699 -0.35447136 0.4915911 -0.093166515 0.23116915 0.020789342 0.3845676 0.3725256 -0.31598344 -0.2363727 0.14867774 0.2189714 0.3785663 -0.079825476 0.1847653 0.10610634 0.07579208 0.516522 -0.29239056 0.101069644 0.02848491 -0.09828731 0.6956519 0.39936748 -0.4391019 -0.051684793 0.6717187 -0.5499521 -0.059878606 0.19195838 -0.41834563 -0.25194368 0.068734005 -0.31630373 -0.10018455 -0.08672492 0.17911488 -0.14302292 -0.5252553 -0.009037337 -0.3009183 0.077767104 0.37088472 0.16925628 -0.38624334 0.28706932 -0.3291503 -0.09696843 -0.010213772 0.18340552 0.13929212 0.65603983 0.27999032 -0.025497172 -0.12250429 0.4866721 0.19097617 0.7683298 -0.30148223 0.12109473 0.0047253356 0.11662897 0.25907686 0.13960952 -0.26897916 0.092998356 0.3195279 0.06413747 0.06969283 -0.19666576 -0.02827334 0.12035935 0.08760329 0.15196674 -0.21213476 0.3128443 0.44203478 0.13782534 0.2582601 0.112177566 -0.065003335 -0.18498498 0.12270191 -0.055713423 0.2867322 -0.15204772 0.18751588 0.20349342 -0.10278863 -0.034164317 0.1556478 -0.06749564 0.25598538 -0.57975715 0.18985263 -0.21958706 0.12603356 0.22645317 -0.5118101 -0.34228653 -0.12268421 0.12923324 -0.07551952 -0.1865927 0.047816172 -0.08297994 -0.13395882 0.024556205 0.23408614 0.10936589 0.27180555 -0.11523052 -0.09798166 0.35637328 0.28537953 0.3774043 0.04199846 -0.5508073 -0.99519217 0.03415357 0.024966573 -0.17094205 -0.12054456 -0.27564135 -0.2505241 -0.054558516 -0.20147857 -0.04188475 -0.109829135 -0.15205975 -0.40208197 -0.19059548 -0.3511004 0.23050009 -0.28148553 -0.086262554 0.15177937 -0.19249345 -0.031929743 0.48338723 0.27784276 0.57800746 -0.0603689 -0.18767692 0.25925368 -0.12098835 0.10976435 0.21997394 0.09282612 0.34543255 0.043622766 -0.026324803 -0.30995324 0.18722965 0.546791 -0.0729919 0.15668827 -0.021933177 0.114498235 -0.61024487 -0.28837398 0.1343541 -0.59865564 0.5922678 0.06648611 0.43422103 -0.31860462 0.16087869 -0.36400723 0.26325193 0.34475702 -0.02422885 -0.2195251 -0.1554083 -0.49113733 -0.47755927 -0.49188417 -0.16610406 -0.12609856 0.33232042 -0.31286234 -0.838975 0.38279504 -0.13606474 -0.2878636 -0.07629067 -0.5955273 0.07325281 -0.43185496 -0.44330573 -0.6163387 0.06879262 -0.17333473 0.32226864 0.35098332 0.06374743 0.031539384 -0.11019289 0.30180758 0.05794934 -0.09628275 -0.4511169 0.021520074 0.18629077 -0.005700402 -0.1589352 0.020152938 0.063258804 0.2155657 0.14471106 -0.5933179 0.15696645 0.073176116 0.018495895 -0.19752973 -0.080383845 -0.22638163 0.33712858 -0.41988692 0.5689278 0.0017449185 0.52419275 -0.10543526 -0.13958305 0.7425752 0.055002704 -0.0051050438 -0.16241005 0.28978434 0.14164712 0.12771283 -0.15529187 0.06500577 0.050919224 -0.44097385 0.3447203 -0.27070934 -0.22255911 0.59602207 0.0823724 0.21571672 -0.08040756 -0.09687039 0.4277647 -0.107271545 1.1281966 -0.11593437 -0.23990406 -0.099449314 -0.8131711 0.45854688 -0.66799104 -0.16670202 0.32307914 -0.6162236 -0.0031287083 0.31793055 -0.69129896 0.014538119 -0.261995 -0.8663256 -0.06673535 -0.18703043 0.26582924 0.09677697 -0.0034594699 -0.027167222 0.14944312 -0.14800169 0.039496694 0.2569961 0.4993601 0.43848425 0.104231 0.2304838 0.2374659 0.06277153 0.63693905 -0.2883535 0.027858837 0.035487976 0.4500914 -0.25432453 0.38928148 -0.1255068 0.249957 0.19077304 0.3517132 -0.32687557 0.099728666 0.4499566 0.17652375 -0.41775212 0.1633948 -0.064221315 0.10294764 0.24954718 -0.30418804 0.0056583933 -0.43223315 -0.5209099 0.10812714 -0.24344018 0.026278328 0.33990332 0.025252802 0.16702576 0.044055488 -0.13991143 0.7520535 -0.32898048 -0.23340026 -0.08359466 0.08410013 -0.72240305 -0.01594937 0.29316485 -0.13806002 -0.008785349 0.13798241 -0.38278645 0.3293898 0.04303276 0.22732739 0.18698938 -0.4262689 -0.22704592 0.248387 0.4156505 0.68182033 -0.18676385 -0.12161078 0.65300006 0.17080295 -0.6588375 -0.15749905 0.051114026 -0.06590621 -1.0045139 0.31658185 -0.32564718 -0.07769982 0.02022425 -0.027932726 -0.29691902 -0.058736373 0.17709446 0.19072498 -0.12153611 -0.09309505 0.18118343 0.18675686 0.26848194 -0.07791701 -0.5119998 -0.40655756 -0.4226786 -0.88509744 0.5742664 -0.04506318 0.2266795 0.3917132 -0.014829529 0.28070378 0.85661167 0.40372324 -0.17495081 0.001324745 -0.22271797 -0.3863643 -0.30613944 0.06839526 0.0323264 -0.44146124 0.31491718 -0.198695 -0.050353877 -0.32472563 -0.22781664 0.08038418 -1.0257096 -0.17417851 0.33030766 -0.18088728 0.19687423 -0.10193244 0.6367441 -0.42228687 -0.3460551 -0.54294854 0.102783084 0.69438744 -0.09971866 -0.37133983 -0.8576655 -0.207773 -0.37930745 0.10963298 0.30570802 0.4322646 0.46081027 1.1277252 0.33962318 0.2096815 -1.1182956 -0.024914693 0.4271301 -0.0027473418
extenso -0.4655983 0.44013032 0.35226986 0.11620036 -0.18901181 0.057789914 -0.003263 0.2452877 -0.19450507 -0.3801922 -1.0117441 -0.8124635 0.2294871 -0.23777483 -0.22736017 0.12136525 0.31877542 -0.20139477 -0.1860043 0.12880363 -0.05082081 -0.24038765 -0.105099246 -0.30968052 -0.70336646 0.42946574 -0.41688907 0.27298728 -0.26752728 -0.11053126 -0.43611386 0.5205935 0.50210077 -0.016728172 -0.27194414 0.2117964 0.014260046 0.09700249 0.06590626 -0.4012279 -0.24926218 0.40282643 0.6248522 -0.19238341 0.39036128 0.38992065 -0.058043286 -0.44775355 0.1525223 -0.05069115 0.63705355 -0.5228923 -0.15832631 -0.13790534 0.30866468 0.333896 0.12771378 -0.04056275 -0.07905139 -0.7309061 -0.29884508 0.30254883 0.47113958 0.15752389 0.39662814 0.29917875 0.16502967 -0.49737993 0.24925531 -0.6776993 -0.47287837 0.32987836 0.052532542 -0.21632741 -0.25147063 -0.38223743 0.123011574 0.07052541 -0.14767699 -0.37928227 0.51848763 -0.48092133 -0.29114175 0.60389346 -0.34949067 0.28516087 0.09942063 -0.035093684 -0.39200988 -0.14901926 -0.029702563 -0.31811833 0.1244293 -0.49547955 0.18554953 -0.01270807 -0.1188573 0.044257898 0.24939986 0.4286096 -0.27677256 -0.25770122 0.08372099 -0.2511774 0.5698597 -0.5561281 0.025245808 0.29648516 0.056247335 0.70242214 -0.5137679 -0.01722856 -0.403677 -0.11049844 0.20192313 0.504182 0.26246208 0.30309567 0.3410591 -0.33097357 0.24750206 -0.10237342 -0.47174644 -0.024251772 -0.17875527 -0.0037310536 -0.12369949 -0.15031408 0.28542385 0.18175165 -0.5413739 -0.0036177025 -0.08202464 -0.037992682 0.035073135 0.15230793 -0.41943172 0.24186078 -0.2394002 0.10931976 -0.2703073 0.26541087 0.22648522 0.6680652 -0.06403975 -0.07974631 0.1642076 0.37136528 0.12099392 0.7265123 -0.21476375 -0.18931764 0.009617839 0.039269116 0.3129927 0.100302644 -0.25127503 -0.017431922 0.16284251 -0.06407877 0.18482186 -0.48836285 0.17027664 0.30082735 0.12590368 0.17274764 0.119968824 0.06980016 0.39016682 0.2151575 0.55870783 0.18691033 -0.14138108 -0.08521497 -0.037335202 -0.035824623 -0.1836282 -0.036985755 0.41432992 0.47552487 -0.14281656 0.23009111 0.16490977 -0.10490932 0.17532296 -0.5887332 0.28243387 0.07813051 0.013918184 -0.19782199 -0.44976208 -0.15624183 -0.079636715 0.099950664 -0.36942667 0.041538395 0.043811068 0.15799755 -0.30195975 0.07567905 0.51727456 -0.05535248 0.22242668 -0.1635221 -0.32413718 0.43083152 0.23781765 0.5033973 -0.117562935 -0.46602923 -0.6708504 0.024164958 -0.21549948 -0.11846904 0.0034878482 0.018997323 -0.13507542 0.14467372 -0.13781297 0.104937814 -0.28588012 -0.017595703 -0.2099402 -0.10914791 0.022896413 0.10898496 -0.3369223 -0.25892946 0.34803054 0.048715863 0.18388844 0.16765563 0.27883917 0.3178044 -0.34123486 0.12994914 0.30843037 -0.21579407 0.3372782 0.32880133 0.108164705 0.3769933 0.040646493 0.3009663 -0.004865121 -0.077244066 0.30614448 0.019913202 0.26804098 -0.17096603 -0.077893466 -0.43058962 0.47217488 0.2202514 -0.13149387 -0.059185565 0.11515948 0.6541856 -0.025977837 0.16270848 0.17047198 0.2614039 0.43655393 -0.25868386 -0.21538039 -0.356112 -0.45621428 -0.38191143 -0.2485647 0.0805865 -0.19235004 0.109237425 -0.31509995 -0.5253158 0.25415447 0.036986604 -0.16143484 -0.19831398 -0.5510962 0.18476056 -0.17431067 -0.36101604 -0.5238341 -0.104180254 -0.37166584 0.3337884 0.12203667 0.08961732 -0.09240125 -0.069802806 0.028179886 0.03679251 -0.08628023 -0.08987656 -0.15214218 0.18273728 0.043168236 -0.2302484 -0.053546388 0.017849406 0.31415176 0.039244656 -0.7759073 -0.025890123 0.08796609 0.17635871 0.02888125 -0.11228306 -0.21888433 0.28512487 -0.5310212 0.55500257 0.034564823 0.48987466 -0.26539806 0.0038847171 0.69104224 0.1305854 -0.10596926 0.05217136 0.045730416 0.12799318 0.10814071 -0.10375604 -0.096561484 0.032442562 -0.435579 0.2404073 -0.03774822 -0.45208836 0.31153396 -0.21325377 0.20141189 0.11145889 0.13546169 0.34214845 -0.12526402 0.5961991 -0.33671412 -0.06361685 -0.11303624 -0.6457858 0.4423221 -0.40263426 0.0120415855 0.41813698 -0.42335552 0.019807221 -0.1326622 -0.49701223 0.0050071073 0.15204974 -0.5318375 0.09594074 0.032058097 0.22954848 -0.05514408 -0.10653468 -0.12525922 0.0823258 -0.37330675 -0.01469132 0.13960972 0.13623965 0.27724558 -0.16249478 -0.06240749 0.1837743 0.0012217031 0.6986875 -0.36258364 0.049417272 0.06718883 0.35890025 -0.17431884 0.32594135 -0.7027249 0.28841662 0.54035187 0.3454845 -0.035915818 0.23010541 0.42254937 0.17359807 -0.2080421 0.06487004 -0.31263342 -0.041987818 0.115171194 -0.26079568 0.13602594 -0.16439639 -0.20926818 0.4876582 -0.04030323 0.086779125 -0.0907262 0.20644437 0.7737746 0.3688105 -0.0512903 0.41277695 -0.3936661 -0.20158248 -0.2073593 0.07863043 -0.7355022 0.06014327 0.27758017 -0.2615081 -0.15990324 0.18678309 -0.3294602 0.20985205 0.6400948 0.3121365 -0.09269483 -0.006067115 -0.25714704 -0.053310364 0.09501049 0.52898926 -0.07125709 0.06651261 0.38650322 0.023290964 -0.41285542 -0.34851056 -0.118263334 -0.24493901 -0.88278127 0.34634948 -0.3994754 0.18952045 -0.045847673 -0.10279322 -0.13203873 -0.32230422 0.012447671 0.079738304 -0.2530559 -0.123228386 0.15854244 0.037105147 0.08556366 -0.19325097 -0.352482 -0.8261039 -0.38150835 -0.80494773 0.69424164 0.0168372 0.3362152 0.15957622 -0.09214183 0.17802247 0.8274088 0.14989167 -0.52185905 -0.30443135 0.119438335 -0.2418525 -0.53719556 -0.19499524 -0.52026045 -0.34365553 0.040252805 -0.7881967 0.22208749 -0.053404257 -0.38379228 0.21266983 -0.70559555 0.28701192 0.1514391 0.0040907483 -0.20450324 -0.30677885 0.69233257 -0.51894087 0.27591267 -0.26630312 0.046653472 0.38281327 0.2714038 -0.041058492 -0.7767752 -0.16923247 -0.36436477 0.561787 0.10268181 0.35658297 0.65837616 0.9726735 0.50702745 0.19372685 -0.55100214 -0.15176117 0.6724518 -0.09645983
seleccionado -0.40994507 0.23837289 0.68593526 -0.040810306 -0.11971193 -0.16987295 0.221564 0.0332568 -0.17205466 -0.0885512 -1.1141303 -0.6498177 0.6709841 0.09061401 -0.29385826 0.0013058259 0.03686693 -0.1713442 0.010553727 -0.10383695 0.060440764 0.30281 0.087492846 -0.40280208 -0.32384354 0.61779886 -0.4756134 0.12963678 0.0058142813 0.09820727 -0.2994362 0.34367132 0.54834163 -0.22870623 -0.3887333 0.2967411 -0.575696 0.14628391 -0.0758944 -0.5279787 -0.3055217 0.3803047 0.5266701 0.035844266 0.057220567 0.27124855 0.15302198 -0.39757425 0.0015940738 -0.08981339 0.13752235 -0.44859388 0.27046344 0.12572762 0.28974307 0.31290793 0.09398114 0.014214488 -0.15886399 -1.0661095 -0.15892377 0.14335148 0.018754357 0.021098256 0.2686534 -0.095872 0.6040674 -0.23023732 0.52979505 -0.880041 -0.20412274 0.72210336 0.06780041 -0.20092748 -0.8657607 -0.50489694 0.20706438 0.14525045 0.074730545 -0.025975281 0.12792857 -0.20828979 -0.18210949 0.22282948 -0.24207556 0.14173251 0.4828498 0.44303298 -0.37154582 -0.27272022 -0.059674677 -0.4894405 -0.06094353 -0.6582735 0.25462842 0.10407605 -0.0797277 -0.02187415 0.32413456 0.32930356 -0.21823527 -0.14536367 -0.006635141 0.27267015 0.1241935 -0.40794906 -0.0858646 0.21397953 0.104370646 0.8102203 -0.563531 -0.20344423 -0.19317012 -0.22026755 0.3667544 0.3716761 0.038644224 0.19826378 0.42845422 -0.20850505 -0.0791879 0.061512075 -0.1480978 0.18623762 -0.2214018 0.0052282135 0.14726193 -0.17419395 0.1303394 -0.14725408 -0.38423628 -0.05528706 -0.38778734 0.30376 0.15089278 0.18402179 -0.40452465 0.21335314 -0.15618476 -0.36536324 0.29033002 0.28286532 0.10603877 0.65931904 0.09877296 -0.076230966 0.1002916 0.22338146 0.10379551 0.3570832 -0.22913846 -0.03267858 -0.17314196 -0.06105629 0.31812477 0.0007441768 0.097137645 -0.123889 0.12777099 -0.16514501 -0.08730801 -0.28547242 0.17140563 -0.043443337 0.108125076 0.16975188 -0.0051250095 0.27395487 0.6665356 0.7271585 0.07392156 0.33075643 -0.024032589 -0.22310354 -0.120485045 -0.2596131 0.42659977 -0.3945387 -0.07526096 0.25655103 -0.09482213 0.20281713 0.106477745 -0.12085358 0.20870987 -0.453104 0.3702309 -0.37967446 0.27845138 0.020313604 -0.3319644 -0.42678213 -0.08948003 0.1207951 -0.23185197 -0.13246126 1.794826e-05 0.06463369 -0.2699321 0.23347755 0.118480094 0.34708115 0.07512152 -0.1706696 -0.5472393 0.47448948 0.49204937 0.4335921 0.30809802 -0.18328579 -0.41293672 -0.08115766 0.17845479 0.2128731 0.21209458 0.10676643 -0.25703782 0.1092969 -0.054952174 0.09268177 0.009938374 0.23248984 -0.24869105 -0.19305079 -0.03859318 0.033337813 -0.09549069 -0.123736076 0.33278 -0.26206863 0.26476097 0.43513283 0.19681986 0.44348672 -0.17856099 0.48013264 0.44429004 0.07604821 0.15066688 0.30493912 0.006198403 0.29072565 0.3118148 -0.060564734 -0.40792152 -0.118185915 0.6039432 -0.118995674 0.2243434 0.015173518 -0.41937304 -0.3726821 -0.15642619 -0.030134242 -0.53594863 0.60666996 0.08449382 0.05519879 -0.23006275 -0.14514309 -0.73268235 0.31708091 0.22626592 -0.033671856 0.19313858 0.2545483 0.04835309 -0.132148 -0.63128567 0.09498624 -0.06444644 -0.11303902 -0.16705523 -0.2568082 0.04531465 -0.15851529 -0.04337929 -0.27196872 -0.29709038 0.27016288 -0.12642255 -0.2964177 -0.5791952 0.109885044 0.17190087 0.38022044 0.4201606 0.25667447 0.3290634 0.18856215 -0.12002184 -0.044872057 -0.007431955 -0.69868493 -0.16258138 0.40287694 0.007038431 -0.42794034 -0.081285864 0.026872892 0.32059705 -0.11621384 -0.5563014 0.2356314 -0.09591524 -0.27987802 -0.011299203 -0.21345218 -0.019192658 0.5471679 -0.13040243 0.49553472 -0.21899481 0.64187914 0.07099036 0.5643542 0.08857926 0.56047726 0.448003 -0.053114675 0.24988724 -0.05148866 0.12492455 -0.22602993 -0.21235377 0.01819537 -0.27435115 0.34026092 -0.104715444 -0.17944275 0.4051874 -0.2602046 0.14583302 -0.084746666 -0.20160174 0.31624606 -0.078792356 0.74445945 0.09581533 -0.37728718 -0.2759233 -0.2282605 0.3379122 -0.43419662 0.13840942 -0.399045 -0.2996015 -0.39664972 0.37093323 -0.52830815 -0.5614678 0.29238018 -0.23656817 -0.28949752 0.04485251 0.07073086 0.35632542 0.18878005 0.30562657 -0.04331792 0.3756927 -0.13820401 0.3255402 0.71189916 0.5141948 -0.5038388 -0.1903996 0.40769702 0.08178307 0.22228639 -0.040929407 -0.10197709 0.051749706 0.19226938 0.3488071 0.4435408 0.1338581 0.27627248 -0.07860858 0.14810945 -0.32151344 -0.15106133 0.27710232 0.056192327 -0.5065159 -0.2402054 -0.2698629 0.10904248 0.30549547 0.28489232 0.42844093 -0.40383402 -0.27916956 0.46983498 -0.050431464 -0.045986928 0.23704457 0.2429658 0.7403428 -0.01645292 -0.47785446 0.42668828 -0.38426402 0.24125795 -0.058458347 -0.13227749 -0.6255661 -0.279105 0.23718199 -0.085653834 0.2378446 0.2972097 -0.008442747 0.09840691 0.23600207 0.5152233 -0.0671306 0.04514366 0.38800007 -0.026015827 -0.005263826 0.75614494 -0.057734665 -0.36185497 0.76525426 -0.12841523 -0.07329027 0.048923325 -0.24557026 -0.41124564 -1.0823641 0.016320746 -0.10186998 0.35260612 0.048896555 0.18269098 -0.113731705 -0.033887938 0.099553205 0.33104363 0.19556275 0.15340362 0.5061821 0.37806913 -0.194035 -0.1768788 -0.6161759 -0.8272624 -0.026806531 -0.71990967 0.5082983 -0.12206448 0.030460887 -0.25786027 -0.0075960886 0.47239938 0.7210377 0.56959885 -0.28322676 0.5833611 -0.4960111 -0.19510151 0.10138706 0.10575948 0.37944067 -0.44314572 -0.009946981 0.6562388 0.5002737 -0.26150447 -0.008594311 -0.31883022 -0.7788392 0.32186353 0.38645524 -0.62095463 0.69149673 0.16335016 0.31429356 -0.49680644 -0.32987702 -0.5420162 -0.0011386942 0.5711419 0.48329484 -0.63067216 0.07118586 -0.4048627 0.16807434 0.09397811 0.1880154 0.65761745 0.15310676 0.6331509 0.2938628 -0.15274471 -1.1355927 0.058948472 0.3419913 0.103040256
ha 1.0526613 1.816842 2.5106702 1.3254851 -2.8695228 3.5049198 -0.7714713 1.7203318 2.2383065 -1.2963651 -0.03297448 -2.4766474 -1.4585896 0.18246678 0.2466462 1.4226948 -2.1264954 0.4865879 -0.89863056 4.496753 -0.29942897 -0.7509431 2.1506047 0.03498852 0.89252937 -0.5311598 1.2735833 1.5737145 1.9391335 2.603831 2.4143145 -1.0571144 0.88575536 1.2229604 -1.5166686 -0.96020865 0.08452597 -0.39239717 -2.8663464 0.16757925 -0.36405116 -1.974445 -0.5320091 -2.318555 2.8190434 -3.2997975 -0.14019237 1.3158336 1.5747749 -0.7044778 -0.43252838 -1.4134063 0.78581256 0.98853225 1.2582388 -0.52984303 -0.7154051 -0.9221992 0.73587555 0.14960852 0.44272333 -0.79895806 -0.5350251 1.3061115 -0.55982953 0.33644444 1.8650992 -2.338911 1.896327 -1.1254399 1.0052245 -0.6941118 1.2616245 0.78881097 -0.4708436 0.6513777 0.53345215 -1.9048946 0.3904331 -0.61447996 1.0423366 0.048359588 0.43016836 -2.0762253 -0.49272516 -1.1629798 0.57729995 -2.0872798 -0.27585143 -1.0460886 -0.033483375 0.48808575 -0.39919725 -1.8858047 1.6910834 2.0650754 -0.15349475 -1.1386843 -0.27526858 0.8754225 0.24674761 0.6171043 0.68905604 0.7111484 1.4396428 0.8099818 -2.8219213 0.5881968 0.013572031 -0.3485317 -0.27960515 -0.8923278 -0.7364089 1.2420971 0.43998218 0.6832477 1.5578532 1.1069733 -0.95631385 2.6611905 0.75657845 1.4224153 -0.006860087 0.37488195 -1.8464552 1.3109801 1.147026 -2.273159 -1.2673945 1.4533583 -1.2979865 -0.33959335 0.18202966 -1.3461025 1.3224881 2.6307898 -0.6292781 0.103828974 -0.1520265 -0.35638675 1.5964882 0.4728133 -1.623492 0.4063834 -0.89731073 1.1951318 -0.61273074 0.8699156 -2.0736544 -0.76024437 0.36289704 -0.103353366 -1.0264181 0.26284066 0.8444527 -1.061697 -0.13646367 0.8892199 1.9247254 0.57680804 0.29371685 3.0417674 -1.8263217 -0.6861358 -1.6957685 -0.716512 -3.47353 1.2946547 -0.5446594 0.3507632 1.2789544 1.4151967 -0.44895902 -0.3111725 0.4186326 1.3859127 1.5274163 1.2255825 -2.4131203 0.9903616 -1.8744544 -0.9868159 -0.9984213 -2.3833537 0.5366337 -0.55338466 1.1493177 0.101134166 0.71115994 -2.421764 -1.0078971 -0.8534796 -0.864069 0.32278022 1.7807426 0.122590296 1.8729334 1.036305 -0.28908768 -0.30618757 0.34637752 -0.34233072 -2.1842427 -0.87960374 -2.0010283 -0.3604918 -0.85701585 -1.897359 0.7876492 0.9595395 -2.3861034 0.11802911 0.64074767 1.0640162 0.3288708 0.07702019 -1.3985175 0.37666965 1.5511485 1.667911 1.5700747 -0.5672086 0.010813434 0.7904409 2.473523 -0.20464207 0.86151576 -1.6046711 1.6163913 0.5958491 2.2753198 -1.2518759 0.4681953 0.3153621 0.19044901 -0.8636988 -0.61379623 -0.44856137 1.4937516 -1.0705975 -0.79741603 0.24918991 -1.2953062 -0.47167066 -3.2978373 -0.556729 -1.176434 -1.2679381 1.0398597 0.1560694 0.3612438 -0.42401066 -2.1217709 0.7161507 0.67461395 0.04039586 -1.3908769 -0.08537281 -3.3350058 -0.024416063 -2.2871559 2.4896693 -2.8307807 -0.42047817 -0.39086026 0.33159664 0.7746815 0.577523 -0.85949963 2.4850106 -1.6111689 -0.7963037 0.60319054 0.22412516 0.35141152 -1.899325 -0.069569856 1.2334012 -0.5925417 1.5136075 -2.1719794 0.65675515 0.6138042 -0.09470408 -2.3979805 -0.38980716 -2.2997804 -0.25075763 -0.2848294 0.118318506 -0.8619338 -1.1580402 -0.34514612 -0.93858296 -0.46046257 -1.6786196 -0.85173535 1.7191292 0.17013164 0.18802975 -0.33860463 0.32901597 -1.0941794 0.6869867 0.08158523 0.0055570207 -1.4608657 1.4642893 1.8915867 0.6582734 -1.3518143 -1.2857975 -1.2809335 -0.1058984 -0.8178577 -0.7877954 -0.47248507 -1.1793692 0.5649946 0.1126791 -0.23932837 0.54117996 -1.2077289 -0.9132132 -0.16111101 -0.34264782 2.3930922 -0.13356304 -1.7819797 0.45350605 0.94211364 -1.5253781 -1.3385307 0.10992764 -1.3230381 -0.19476898 1.1261477 -1.4112651 1.6092362 1.012399 -0.6079789 0.1341394 -1.3414658 -1.6975899 -1.609837 -1.4569808 0.3004685 -0.7060965 2.7145603 2.1106987 -2.1361673 1.5493258 0.2599627 1.475991 0.32027015 1.465088 -2.275472 1.7085812 -0.4888551 -0.632538 1.3741697 -1.0744334 0.15574925 1.3443601 -1.3113424 -3.2601418 0.8719176 -0.51956993 0.673666 -1.4292574 -0.4765405 -2.2554438 -1.564443 -0.2018653 -0.14159755 1.1844239 0.13726482 -0.47195762 2.092415 0.43977106 -1.1816692 -0.91040015 0.97687477 -0.33513612 -0.9187958 1.3218501 1.3723521 -0.13018617 0.3644872 -1.3503442 2.6148448 -1.0042988 -0.10426544 -0.16166471 -0.33952639 1.1154698 -0.87087286 -0.6113858 0.5160089 -0.4936457 0.066767775 1.724425 1.2178562 -0.9632112 -0.8956836 1.1483967 0.63944113 0.7284569 -0.013293461 -0.35860184 -0.94685346 0.7823205 -2.3872366 1.0152489 -0.22536667 -0.6575108 -1.3774544 -1.0739204 1.1745733 -1.8958066 -1.116148 -0.17079142 0.42798162 -1.7015392 0.6761609 -3.577871 1.4087465 0.27476975 1.6361246 -0.62764364 -1.1171033 -0.75968397 -1.8542613 0.0027874236 -0.42420238 -1.1641177 -0.67679775 -1.0155357 -0.471672 -2.4571428 -1.5127754 2.6632414 -1.2862827 -1.2510387 -0.49204332 2.556266 -2.3740191 -2.231309 -2.253686 -0.08687468 -0.89591855 0.08077452 0.19066067 0.6400489 -0.59135777 -3.2904818 -0.48706657 -0.3892233 -2.0763173 -0.6396515 -1.4366552 -0.8124978 1.3505244 -0.42568654 -1.41184 -0.16889781 0.91255915 0.42588806 -0.9483163 -0.60647 -0.8967659 -0.5657814 0.5830149 3.1243968 -0.7365707 0.41676447 -0.62555945 -3.926101 0.88096917 2.038455 -2.4238107 -1.1516737 -0.32314897 0.98183316 -2.592886 -0.4816473 1.1394223 -0.69639874 0.693455 1.5721062 -0.3308203 -2.4044497 -1.0337906 -3.1625657 -1.2933205 -1.6421067 -1.4432161 -1.277678 1.593884 -0.67497337
sus -1.954747 3.468067 -1.6048232 0.97916543 2.1408088 1.3656913 -0.29590985 0.38800353 1.1963992 -1.0691669 0.99918586 1.1861038 -3.4326012 1.417099 -0.37168044 0.13669913 1.4832536 -0.022454128 -0.66472936 1.6861982 1.9100957 0.07268158 2.2735245 -0.4698107 1.768528 2.851873 -0.32705846 -1.2882836 -0.65863836 0.04023036 -1.3259627 -0.46053037 0.031810377 1.2959127 -0.36879697 1.8397099 1.3265729 -2.068013 -0.61152583 0.15187338 -2.6271906 -1.5034412 0.55372745 1.6368076 0.13067827 0.42542514 0.5006261 0.8283956 -0.268009 1.0773567 -0.10725076 -0.7176252 0.99091184 -1.4415374 -0.47046804 -2.0743172 0.65629226 0.2107417 0.8846105 0.12108684 1.3306766 -0.03931825 -1.1533492 0.19961017 0.0006475141 -0.9916651 1.8034631 -0.21137844 -0.21998963 0.86686397 1.5595073 -0.1390766 0.04376391 -0.20752464 0.30873275 -1.3365464 1.3402166 0.280571 0.24669145 -0.62167215 0.054798316 -0.4318734 -1.1207124 -0.52570397 -1.5582204 -0.3268536 0.27797794 0.25721207 0.22307815 0.36212316 0.13058004 -1.3097118 0.6238499 -1.2510076 1.2964389 0.42447266 -0.79453427 -0.13667183 0.0485972 -0.6522703 -2.0028691 -1.2331697 0.06363914 1.4188848 -0.6689884 -0.7057504 0.37758112 -0.73297507 -0.88416713 -0.8327074 -0.28908268 1.7389497 0.058789898 0.68640846 -0.78503823 -0.11499811 -0.085423134 0.208988 0.3740737 -1.2502366 -0.77473986 0.68880075 -1.1147075 -0.63431346 0.62407655 0.5801316 -0.31020266 -0.05917944 1.3749493 -0.80412316 0.6886267 1.436844 -0.8504825 0.6219712 1.6042811 -0.15194732 -1.1006746 -0.4673602 0.1796312 1.3457568 -0.22167166 0.56801206 -0.11577805 -1.9168681 -1.5826344 -1.146039 -1.0453422 1.7963661 -0.07201477 0.46887004 -0.047043554 0.8224232 0.54652315 -0.2515889 1.71727 -1.9410725 -0.65659136 0.44050872 1.424536 0.25539014 -0.95007044 -0.15575098 0.58725744 0.8636357 -1.3909093 0.81805295 -0.13185485 1.2304887 -0.5323462 -0.70146114 -0.052464038 -0.17677483 -0.5133943 0.87087786 0.34776217 -0.18687797 -0.21253586 0.81773955 -0.9092974 1.7497599 -0.16891086 -0.644116 -0.39068013 1.6272174 -1.7592202 -0.36798394 -0.7491434 0.0029962205 0.22286186 0.31659922 -1.4667747 0.9786608 -1.8990006 -0.5023023 1.3322157 -0.38077134 2.0216093 0.61829233 0.71914285 -0.46423283 -0.9690158 1.263944 -0.5813204 0.0945769 0.424403 0.79114366 -0.1649227 1.016413 1.0621022 0.8787945 -0.8457992 -0.4910397 -1.1723922 0.41364893 0.51500076 0.8783947 -0.56195754 0.7812246 -0.1671448 1.3616977 0.025777606 -0.56526524 -0.15551159 0.3136381 -0.15751533 0.58185023 1.2842053 -0.8199685 1.5241275 0.8408071 0.63090813 0.50667965 -0.0526271 -0.4870117 -0.45656222 -0.24100392 -0.3424012 0.9967391 -0.9267863 -1.227961 -0.7563453 0.47508034 -0.6194947 1.0751982 0.060733322 1.1865151 0.7797731 -0.25015953 0.060900617 -1.2819257 1.4935265 -1.0719138 0.2244931 0.4273689 -1.1326853 -2.055001 0.15665515 2.3460262 -1.761486 0.649686 -0.8671445 -0.05946174 1.0147438 0.41932562 0.4641402 1.2707094 0.1793326 -0.23874351 -0.51803595 0.9994948 -0.33965144 0.20418647 0.61834466 1.4104902 -0.56343234 -0.192709 -0.117169 -0.23466352 1.0086133 0.39931494 1.1458615 -1.7439791 -2.3060088 -0.040781617 -1.3155276 -2.2095041 -0.8075717 -0.27958083 1.0779437 -1.173941 -0.86642444 0.07279731 1.6182975 0.14639796 -0.8455888 0.8961558 0.055251803 0.21798463 -1.6989859 1.184864 -1.1210341 0.14252819 -0.7676586 -0.3602173 1.019199 -0.87533975 -0.14810473 1.0719638 0.3160719 0.0005173152 -1.3163637 2.0434008 -0.35771707 0.8551913 -0.5842621 1.1261822 -0.38574055 0.6514585 0.5249428 -0.89028126 -0.6152206 1.097216 0.008538468 0.9676407 -0.86378616 -2.1408792 -0.38305005 1.9909993 0.6406018 -1.1947565 -1.612819 0.00088700245 -0.013202714 -0.060039975 1.125231 -1.3090478 0.5204873 0.5259276 0.5436757 0.30979818 2.0769107 -0.50374776 -1.099415 0.20901789 -0.39022204 -1.5131121 -0.90015686 1.4355844 -2.1264122 1.0931011 -0.15642542 0.5136757 -1.0123385 0.48792195 0.71753514 0.7911346 -1.1691041 -0.8163765 0.43018493 0.80628836 -0.005211611 -1.526593 0.08952512 0.20351876 0.42215016 -1.2348242 1.9730936 -1.6130936 -1.6001661 1.8411379 -0.3664244 0.03571476 -0.9610875 0.4461958 0.16965419 0.60944486 -0.51457256 0.31524795 1.866648 2.1971421 0.36365405 0.078047715 0.56016344 -0.44886446 0.18597317 -0.40315643 -0.27782798 0.17004561 1.2699107 -0.81174964 -1.5286299 -0.7925452 0.3707124 1.5517772 1.5194325 2.51949 -0.4399426 -1.1971133 0.70364296 -0.1945731 -0.13785656 -0.3096093 0.8089019 0.5748564 0.44371238 -0.49595585 0.090472616 2.3700755 -0.757938 0.608478 1.0872757 -0.4142328 0.7094472 1.2476798 -1.2315938 -2.370128 -0.038888264 0.055627916 -0.5322169 -1.1586443 0.5963701 -0.69979894 0.23872054 -0.12450968 0.0022267362 -0.6506882 0.3056289 -1.9357727 -0.35362396 0.17950818 0.38643715 0.49748048 0.1844446 -0.77942854 -0.54241586 0.7508288 0.27142614 0.17702246 0.009199765 -1.5365107 -0.92152494 -0.76268595 -0.120662965 -0.30237573 0.44408688 -2.513383 0.2515294 -0.8546404 -2.1208405 -1.0232911 0.3818716 0.9725139 -1.4997585 0.43808877 -0.3232357 0.18072431 -1.9849797 -0.4525924 -1.6360549 0.92418957 2.2990592 -0.58038116 1.0273613 0.21789776 -1.9863669 -2.3779163 1.9506654 -0.056342095 1.0049397 -0.4989705 0.6883332 -0.64142007 0.7344141 1.1320215 1.1697128 -2.434318 -1.287999 -0.9874905 0.26269636 0.7106389 1.7752793 2.0722578 -1.5298513 -0.44103667 1.511769 -0.8542785 1.2882065 0.92509574 -1.608264 -0.3780843 0.20869724 0.08380782 1.4092895 1.9358464 -3.2854884 -1.0961945 0.04308164 -1.3992158 -2.6380045 2.793097
que -2.387226 -0.4867341 0.21764451 -0.08591675 -0.91801107 -0.94437474 0.6027306 0.037501585 0.7351087 0.17750013 0.39291328 1.1625359 -0.5255107 -0.692599 -0.48545104 -1.2264277 0.855457 -3.1247835 -1.8604331 0.68376863 -2.1981056 -0.30668247 0.032163717 0.4892748 -0.36133552 0.70401967 -1.7916543 -2.2287493 -1.9019301 2.5200627 -2.5492225 1.5182127 2.4359105 -2.2975307 -0.49335253 2.9161382 -0.9890032 -0.34143388 -0.5045946 2.657261 0.60524887 1.3896524 -0.92797893 -3.5117178 -2.7105098 0.49249396 -0.791507 0.3572331 -2.7349885 -0.9645399 -0.43001178 -2.1985826 -1.0726752 -1.2960721 1.5645232 -2.0580146 1.795099 -1.4539368 -1.5964671 3.586893 1.7491982 -2.1377883 0.6089894 -3.2630644 -0.90228325 -1.7375422 1.4550282 -0.00062780344 -1.8734975 1.5226924 -1.2360458 -0.5957952 -0.03550783 -0.031637073 1.0630416 -1.1617569 0.5362406 0.31710988 0.35871163 1.4874113 1.2345656 0.60614526 -0.6336506 -1.7493932 1.6603199 -2.1153388 0.92673904 -0.071170256 0.28014725 -0.49986556 1.8635824 1.953161 1.9527366 0.40102664 2.535138 -0.7319221 0.32649514 -0.8315477 1.3001316 -0.19147621 -1.9291513 0.6575081 0.124049716 -1.4103465 -0.19207507 0.04924865 -0.6311578 0.4849239 -2.1465907 0.4851086 0.09206351 -0.38497132 -0.24138255 -0.7087517 -0.5115856 0.41970313 -0.39021945 -0.061519682 3.069828 1.7690176 0.9369737 1.1636031 -0.9283185 -1.144919 -1.9561749 -0.8598561 0.22692169 -2.2620423 1.0340079 -1.0688982 0.063444234 0.21491683 -1.1499741 -0.9847441 -2.4069717 0.5238998 -3.4278033 -0.78323066 1.7358059 -0.101160474 0.43769 -0.43339017 -0.16366552 -0.3686972 -1.623163 0.023496835 -0.9037717 1.2777718 0.86706144 -1.4518448 -2.1289072 -1.5340557 1.8379523 -2.151715 0.37130222 -1.4455916 -1.4502676 -3.5277233 -0.57402945 3.3637927 -0.024933968 -0.6204339 2.059594 -0.12907991 -0.29458758 1.6614826 -0.79956824 0.31488958 -0.8921153 -1.2836524 -1.5268766 -2.3241038 -1.769987 0.58948624 0.107627966 -0.62172 -0.74381846 0.7024284 1.0922493 -0.9713936 0.9817249 0.3150097 0.8367035 2.7098734 0.38662025 -0.71096325 2.580197 0.47108784 0.13499694 3.3915734 -4.0417395 0.58152926 1.2966024 -1.439511 0.414137 -0.43015224 -0.4168574 0.23256977 0.035405643 -1.0894178 -0.20161812 2.1330845 0.72604924 -0.7730984 -0.4232191 -1.4072039 2.5443096 0.23522384 1.527153 -0.19637609 2.7448316 1.2278603 0.7384632 -0.77098876 1.9686768 -1.1715808 2.3686457 -2.131179 -1.9378173 -1.6940033 0.16018817 -3.223631 1.1520414 -2.8904958 -1.7341127 -0.9694892 -2.6120915 1.403473 0.20929912 0.2124724 1.6188715 1.010002 0.5612116 -0.16533269 0.586788 -2.5304246 -0.2773955 0.7592276 -2.0820124 -1.1390331 -1.5073382 0.11091559 0.6765406 2.5513072 -0.47605172 1.6104728 0.6254278 -1.2614357 0.0329657 1.0356538 1.5095989 0.77407074 0.83050215 1.9760096 -0.6433974 -0.9844065 1.7257456 -0.5175146 1.4827164 -0.63031006 0.46915847 -0.41024923 -1.1515361 1.1983248 -1.5466053 -1.5360265 2.7915754 1.2808132 0.7471574 -3.3848226 0.037101198 1.2357368 1.6350093 1.4067999 -0.37110016 -0.75988877 -1.5052396 1.9173038 0.30355904 -0.17356586 1.301661 0.54889435 -1.7538415 0.46540785 0.5601008 1.1442055 0.620175 -0.18368305 0.9484418 0.4413971 -1.3255038 2.105446 1.1284821 1.4970355 0.54008025 -0.32696307 -2.158688 2.6741612 0.70664716 -1.275894 -0.7456584 -0.13451108 0.373481 1.3457692 1.4787056 -1.7296876 0.746951 -0.54017127 -0.91486204 0.41239733 0.56448436 -0.8499497 -0.65907913 0.19639668 1.699422 0.8747274 -2.2985382 -0.11968095 0.09365819 -0.3692428 1.6988227 1.0059153 0.9003901 0.8915759 1.9513458 0.5498713 1.7766966 -0.21256155 -1.1792469 1.1811283 -2.0597148 0.6619429 -1.7359755 0.56881535 0.10629187 0.6292239 1.4086844 -2.3423126 2.357996 -1.0579112 1.7642233 0.11751469 -0.25132844 -0.3893397 0.89723337 -0.47835138 -1.9518328 -3.7499268 1.8343874 -0.2225435 0.7523383 0.34554723 -1.3347188 2.2088742 0.7079131 -0.84012926 1.5978642 1.5305566 0.67728025 0.049151603 1.7215662 -1.503678 -0.12643635 0.08478098 -1.7458256 -3.2247343 -0.32811823 0.6457621 -1.9129041 1.0204871 -1.1355174 -0.48304644 -0.39454228 -0.84288 -0.77770376 0.74921316 0.10927158 -1.9114707 -1.677827 -1.1173235 0.013376129 -2.536907 2.4045508 -0.26338163 0.6837702 0.83091104 -1.043766 -2.7322726 -1.892981 -1.6735368 0.7024036 -0.14893591 -0.51591676 -0.7379372 0.76795954 -0.5728 1.6428457 0.20568773 -0.39179647 -3.2618296 0.7382398 0.42920125 -0.7672694 1.6097192 1.2428154 1.6992251 -0.46128812 -0.13847823 0.0749322 0.5612156 -0.34418616 1.2074795 1.3665602 1.938634 0.42278245 -0.36828303 1.0999786 -1.287853 -1.1485698 0.7217355 -2.249376 3.4419014 -0.08913637 -1.4437875 3.4339828 1.4641782 -0.5293395 -3.1240196 0.46138448 0.3281092 -2.6123943 -0.25181705 -1.8444347 0.6224913 -0.31058732 1.7782874 -0.6317879 2.6120558 0.07157561 2.8531318 2.1347036 -0.864137 0.091138646 2.2735698 -0.10451394 -2.9173586 0.021847378 -1.2226112 -1.9514828 -1.3559417 -0.44838783 0.60269827 2.3139737 -2.4507215 -2.1766963 0.033416793 -3.0965192 -0.5077175 0.6336223 -0.557543 0.10265357 1.4917462 -1.1493979 -1.5860598 -1.0065576 -1.2869831 0.1448688 -1.1617512 -0.59321684 -0.8278015 1.1396672 -0.8133602 -2.4959362 1.5954515 -0.38078788 2.244279 0.12458552 -0.08061418 -1.0328615 1.9026159 -0.6418507 -1.8415726 -0.32508388 -1.9618604 -0.4050177 -2.1108744 1.4119459 2.8206494 -0.6776906 -3.048362 -1.3290659 -2.8283608 -0.26700833 0.49707946 0.74864304 0.44666398 0.19964819 0.10232905 -0.83389306 -2.3690166
a -1.0183777 -0.35340083 -3.5540483 1.0032874 -0.7265111 0.8517123 2.7412093 -0.36526322 0.66587967 -0.3323568 1.4141355 -2.1905751 0.8610964 3.1281347 -0.60611385 -2.8092935 1.219468 1.5566937 -2.4959478 -1.5372244 2.0087228 1.14695 -2.8460376 1.9846863 -0.43659085 -0.6099059 2.852537 1.4468921 0.9336182 0.25858432 -2.1789122 1.4091688 1.4093844 0.91112274 0.8843704 0.8346856 -0.0350685 -5.322258 -1.4655417 0.82363236 -2.1459012 0.0952143 0.0585816 0.5739454 1.6010377 -1.786296 -0.38779393 0.9378694 -0.48707405 -0.20943093 -0.15138781 -2.0647912 -2.1075466 0.9673318 -2.7544844 -0.3314871 0.084421314 -1.4564171 0.81717056 -0.3772744 2.106119 0.4107489 0.94080395 -1.9078993 -1.7951661 0.14943573 0.94854933 1.0241584 0.021329219 -2.6674728 1.3138654 -1.6971527 0.41293734 0.03737477 0.46821415 -0.015529455 1.899035 0.07004695 0.93021566 -0.0048819873 0.9466289 -1.1728865 -0.38149914 -1.7684007 -0.66642654 1.3562385 0.6028039 -0.8246485 -0.24442121 -0.780579 1.8019345 0.33706224 -2.865786 -0.7392461 1.4796026 0.9657881 0.7429837 -2.3113062 -1.2767099 -0.46630484 -0.66656846 0.8190314 1.4459611 -1.1544487 -0.42921066 -0.54057765 -0.039242256 0.37713698 -0.023498569 -0.95119023 2.5382984 0.48599938 1.3234332 -1.1607785 0.06316487 -1.3569092 -0.6583846 -0.102429785 1.5338479 0.31345776 -2.9990563 1.8859785 0.543437 -1.8120724 -0.59125733 -0.092257544 -1.0414364 -0.35855943 0.8184249 -0.72225213 0.032928277 1.7529508 -0.5398125 -0.06829141 0.8546568 -0.5905176 0.8833825 0.05412987 0.28411502 -1.3293127 0.31915492 0.96027535 0.43328655 -0.14083447 -0.7398631 0.35572848 -1.403474 0.08642713 -2.0599196 -0.7452973 1.0467826 -0.35686138 -0.53234714 0.7991443 -2.8093784 0.2019523 1.5297148 -0.48165247 -0.41583672 0.358218 -0.08563045 0.88016444 -1.2729917 -0.2508746 -0.68487096 0.48113355 -0.19924453 -0.08428772 -0.45467317 2.7508888 -1.8496196 1.4694799 -0.9953197 0.5636116 0.7350596 -0.21531805 -0.5444462 -0.51381177 -2.7708588 0.10337046 -1.0043327 1.2181805 -0.6821 -0.122294836 -0.37955806 1.884829 -0.697515 0.49871272 2.028387 2.1938128 1.807397 -0.15629378 1.9269577 3.3460343 -1.3232846 1.5993801 -0.32972196 0.70420724 -1.7590925 -1.0896802 0.6194218 2.226824 -0.32884872 -0.28770894 -1.1192796 0.63943636 -0.7485694 0.7180186 0.9670139 -1.2292473 0.9313209 -1.6070691 -1.837603 0.992794 -2.7541614 -0.11857846 -0.96153647 1.3397241 -0.0034886636 0.5421735 -0.016937235 2.6458273 -0.68084615 2.9835112 0.8675896 0.6018584 1.5884968 0.90818053 -0.6591067 2.7635717 0.75514144 -3.4293041 0.09871045 -1.3435185 -0.7250228 0.67794895 1.7403566 -2.069558 0.72696614 -0.10800496 0.6288039 0.19438782 -0.049430065 0.3588615 -2.0092974 0.7619601 1.0331341 -1.0023357 0.5164582 0.74218917 0.030742673 -2.52249 -2.4847 1.3093114 -0.64252615 0.59670734 -0.4904027 -0.5921717 0.22717136 -0.23672996 -1.5216753 -0.8026917 -1.9957942 0.53457433 -0.384558 0.6567606 0.63579834 -0.24006782 -0.8882822 0.13015328 1.8948884 -0.5774028 1.4079552 1.0354255 -0.6343973 -0.88917357 1.650585 -0.24088079 -0.508643 -0.5959215 -1.1852945 -0.061146278 0.56888443 -0.42711276 1.5660999 1.5271565 1.2660209 0.2510769 1.9258887 1.5451094 0.44891906 1.7758658 -0.3153987 -1.67566 -1.0296905 1.5940299 0.34521303 1.7776742 -2.2516978 -0.24343342 -0.07749358 2.1724029 1.0145938 -0.6108034 -0.8699722 -1.6060753 -0.8413752 -0.8479474 0.6167788 0.20898314 -0.24755399 0.8901323 0.14359885 -0.4592874 1.2723607 0.41683236 0.080480486 0.54833204 -0.24640583 -0.47294784 0.6260644 -0.118648075 -0.6043054 -0.1316819 1.2601268 1.7746884 0.27023223 0.12187131 -0.7875242 -0.1441271 1.262394 0.75302625 1.189055 -0.9813032 -1.914592 -1.2132508 -1.8241112 2.887735 -0.40407065 1.3397422 2.9131494 1.2869151 -1.2616793 0.8765527 -2.5008943 0.3267776 0.3221616 -1.0870249 0.78792155 1.2291906 1.7457927 1.2337554 -2.503474 -0.8411931 -0.63649064 -0.46224272 1.0929842 -1.785304 -0.026571767 2.1135724 -0.39402574 0.13835616 -1.8419496 0.9419521 -0.26124638 -2.2608232 0.66783196 -0.8105071 0.012541621 0.36852083 -0.6964138 -0.61675334 -1.0406691 -0.7502673 0.41338614 0.27302623 -1.7637128 0.46768364 -0.34931743 -0.39674392 1.6207194 0.8183702 -0.13200617 -0.009191126 -0.6424083 1.2043205 -1.5083083 -2.2930286 -0.24921754 -1.5884069 1.5131723 0.64948845 -2.1404455 1.0372121 1.601979 -0.46069473 0.5163373 0.6595218 -1.0314736 -0.17303441 -0.00585917 0.8407664 0.76919115 0.96299857 0.3798995 0.85990536 0.1397411 0.8294679 0.8586271 0.55670947 1.6789876 -0.120710455 0.1656573 0.07610808 2.668432 1.1528949 3.213945 -1.5693383 -0.93540967 -0.6798602 -0.5413415 2.0696032 -1.7163957 -1.1516429 0.5768312 1.8678973 0.85036826 -0.9347496 3.3758128 0.17961101 -0.115544714 0.41893512 -0.6620154 -2.016635 2.996795 1.1790345 0.9576687 0.7880732 1.0341218 0.8752341 -0.6269817 -0.49896884 0.43619177 1.5881065 -1.0987507 0.2512688 -1.8664166 1.3212651 -0.5993727 -2.2844691 -1.0618212 -0.45650148 0.64804894 1.6715977 -2.904486 -2.303104 -1.9635676 0.16968347 -2.5134187 0.16634509 -4.065525 -0.2954492 -1.9330839 2.721855 0.20875269 0.15439016 0.17576486 0.8710585 0.20093134 -0.09884406 0.8707808 0.3140609 0.17626257 0.0025039532 -2.1601877 2.5898852 1.5980003 1.1544619 -0.50043577 -0.7932088 -0.84990984 -0.25863892 0.100154184 -1.7655975 -0.79469925 1.6554462 -0.32989398 -3.2719634 0.2377039 -0.4766541 -3.0768168 -0.20473906 -0.31920266 -1.1251827 2.955244 -0.093628444 -1.5133121 -2.520744 -0.1909401 2.284266
impacto 2.3429277 0.23506527 1.0157729 -1.795675 1.9825907 -1.3098842 -1.2534848 -0.2155626 -0.7857835 1.9170476 -1.0623753 -0.540832 -1.5096475 1.8510493 -1.3483123 2.7088048 1.6273738 1.5763724 2.7073586 0.6157379 -1.0536584 0.5459465 -0.05502868 0.7278484 -2.7389736 -1.4122263 1.4092782 0.28197625 -1.0036893 -0.36434448 2.4294739 0.03965589 0.09798941 -4.9052515 -0.2744133 3.3114629 0.9780778 2.4464395 -0.34604102 -2.560558 1.0262797 0.7225229 0.8183618 -2.1920855 -0.37670225 1.561341 1.0026958 -0.5733205 0.55363226 0.9051143 -1.8119915 -1.3412021 -0.5364511 -0.810575 2.0230882 2.5571752 -0.1567132 0.65581834 -2.036559 -1.7832386 -0.10331898 2.1261666 1.7336557 -0.47178242 -1.9207517 0.72527546 -0.932822 -0.14961286 -2.4351714 -0.9065364 -1.3559306 0.21507046 -0.46010593 0.46665555 0.9845946 0.6478555 0.17826085 -1.5168974 -3.1965935 -0.27816585 0.3288669 0.49944976 1.6464942 0.6398453 -1.1637908 1.9590122 1.2190018 0.47149512 -0.36882663 0.1854865 2.3668263 -1.6911299 0.43734467 -0.9436806 -1.9885592 0.13232817 0.0052275765 -0.06424166 0.34136015 2.2332652 -1.4962901 -0.9576497 0.40494052 1.3019077 1.6430678 1.0413125 3.3413246 -0.7105124 -0.86952263 1.2512839 0.38091633 -0.4370902 0.7579461 -1.3639495 -0.32078943 -0.37530553 -0.98612434 0.7257537 -0.7639935 -0.09262921 0.7935599 -0.5018353 -0.1670034 -0.079095356 -0.697345 -1.0126975 -1.3888475 0.4318554 0.82192624 -0.4666385 -1.1654491 -1.596775 0.7088439 -0.7158113 1.2964108 -1.296811 0.6640043 0.34878126 -0.1405231 0.634041 -2.0493417 0.18680547 -0.13791838 0.79988885 -0.5592726 1.3464931 0.8783879 -0.4019592 0.30358014 0.06425481 0.6564326 -0.5389248 0.7472536 0.7246648 2.3784478 -1.0077333 -1.0691011 0.53536594 1.2828076 -1.8172952 -0.9216459 -1.2562819 0.7332537 1.9580766 -0.78850853 -0.72497857 -2.1398935 1.8731028 -1.3037571 -0.35434794 -0.66677576 0.18150716 0.7757033 -1.1558378 -1.372874 -1.3481964 -0.3099328 -0.50629133 0.19000961 0.2992813 -1.1554762 2.530931 -0.695692 -0.4523133 -0.36356232 1.7583312 0.42034784 1.1383598 -1.2676985 -0.86034155 1.4565642 -0.10188961 0.34675252 -0.4342737 -1.1373054 0.003503692 1.563867 1.2018808 -0.46754104 0.84406626 -0.39843285 1.1647817 -1.2070718 0.03951556 0.53623366 -0.24978071 0.7251217 0.27319688 1.2931176 -0.25843528 -0.9579147 0.7180727 1.3038069 -2.936317 0.43141156 -0.413398 -0.9067839 0.05733344 -0.34412414 -1.0850904 -1.1551907 0.044076256 -2.7779944 -0.9871691 1.018873 0.17740673 -0.24073961 0.057955746 0.2754071 0.08584783 -0.29879895 0.6628476 -1.2833105 -1.2309203 1.9064682 -0.609252 0.006887483 -1.0442761 1.1769578 -0.27567154 0.17594281 -0.6013277 -1.187375 -0.0066727065 -1.6450988 0.037548997 -0.7808369 -0.9926158 -0.09620516 -1.0531051 -0.75287193 -0.13899906 0.77288276 -0.5976764 -0.71574026 -1.4503818 1.7266217 -0.008153474 -0.3220266 0.74122083 -0.40540242 -0.28192264 0.87514657 -0.20816714 -1.2347277 0.08833007 -0.469245 0.4623467 -1.3136426 -0.16313486 1.5545348 0.41670737 -0.7557073 -0.748535 0.42640364 -0.5145638 0.6048062 -1.4269924 0.31042248 -0.3843465 0.86460507 -0.36085555 -2.2772343 -0.8446167 -1.7191596 -0.300095 0.60137945 -0.115066886 0.69382745 1.3878702 0.54958206 -0.06110864 0.01745752 -1.2380766 -0.33329087 0.1418053 1.4049714 -0.7168507 1.6238374 0.13290872 1.8135914 -0.7086698 0.055087492 -0.76787424 1.80712 3.1521392 0.23704223 -1.7512555 -0.7460258 -0.2314302 1.2946885 -0.34972268 0.34521165 -0.5715594 1.0420185 -1.827104 -0.16642824 2.298551 1.4517169 1.4587969 -0.7063734 -0.021104638 1.5026438 -0.0038466293 0.42160982 0.17139883 -2.50735 0.7207385 1.9542483 0.9341428 2.9859028 0.7428837 -1.6340874 -0.9557658 1.2498468 -1.5160582 -0.34351465 0.8415879 -1.2511421 0.5143963 -0.58288443 0.06698644 0.6866521 1.0206912 0.010186345 0.26735806 2.0108104 0.6880913 0.07974263 0.34521794 0.19552715 -1.7157931 -0.46768656 -0.8155478 1.1405694 -0.23181033 -0.6311321 0.4505866 1.1617025 0.81963 0.04153678 1.9970865 1.537563 -0.70118546 0.42272362 0.3603792 -1.096164 0.21729057 1.2039666 -0.24622232 1.2546389 -0.6479137 -1.0243268 0.23617984 1.8174957 0.46690226 -0.20761335 -1.0799198 -1.431073 -0.9151736 -2.922515 -0.9171326 -0.50231194 -0.31236738 -0.19384153 -0.55006015 -1.6896418 1.7472471 -1.3031447 -1.669048 0.00799856 0.12840159 0.54722786 0.9063881 -0.8577898 -0.54497725 0.5107575 0.04241043 2.398823 -2.0465953 2.4279854 -0.421918 1.3354878 0.4840539 -0.45230997 0.24578604 0.7050152 -0.039100926 2.325224 -0.16080293 -2.914034 0.4109437 -1.2330424 0.59707755 -0.32273355 -0.3725169 -0.9168131 -1.3954165 -0.45934102 1.5630621 0.10938496 0.5023079 -0.762266 -0.67056066 -1.7373259 -0.5864521 0.47890738 0.069191284 -0.84873843 -1.3890611 0.09011625 0.2784065 2.2505674 -0.5413069 -1.9069964 0.33529383 0.15046413 -2.2818892 -0.14371035 -0.41960347 -0.8410737 -0.65159446 0.3483255 1.2036842 1.763486 -1.2887096 -1.5413164 -0.9435919 0.6598673 -0.102968715 -0.44818684 -0.90089417 -1.719901 2.141238 0.63066 1.7515786 3.314616 2.8055449 2.7867944 1.4891481 -0.5693712 -1.6467043 2.7037807 1.6607872 1.5392573 2.4512036 -0.018614309 -0.6934669 -3.1475055 -0.66769487 0.36873585 2.148036 -1.287513 -0.8300119 -1.7100056 0.5121803 0.6994734 1.8056293 -0.1477639 -0.39228702 -0.021769747 -0.17901875 4.6738253 -0.51108664 -0.92373365 0.6928489 0.8214582 0.24893194 0.37905326 -0.10232607 -2.1180887 1.6232697 -1.6422244 0.8377756 -1.6833482 -0.76618755 0.56326914 2.5470626 2.1113093 1.2462689
